{"learner":{"attributes":{"best_iteration":"275","best_score":"0.01571964345265235","scikit_learn":"{\"_estimator_type\": \"regressor\"}"},"feature_names":["cpu_usage","memory_usage","load_factor","lag_cost_1h","lag_cost_2h","lag_cost_3h","lag_cost_4h","lag_cost_5h","lag_cost_6h","lag_cost_7h","lag_cost_8h","lag_cost_9h","lag_cost_10h","lag_cost_11h","lag_cost_12h","lag_cost_24h","lag_cost_48h","lag_cost_168h","roll_mean_6h","roll_std_6h","roll_min_6h","roll_max_6h","roll_mean_12h","roll_std_12h","roll_min_12h","roll_max_12h","roll_mean_24h","roll_std_24h","roll_min_24h","roll_max_24h","roll_mean_48h","roll_std_48h","roll_min_48h","roll_max_48h","roll_mean_168h","roll_std_168h","roll_min_168h","roll_max_168h","ewma_6h","ewma_24h","ewma_168h","lag_log_cost_1h","lag_log_cost_24h","cost_delta_1h","cost_delta_24h","hour_sin","hour_cos","dow_sin","dow_cos","month_sin","month_cos"],"feature_types":[],"gradient_booster":{"model":{"cats":{"enc":[],"feature_segments":[],"sorted_idx":[]},"gbtree_model_param":{"num_parallel_tree":"1","num_trees":"306"},"iteration_indptr":[0,1,2,3,4,5,6,7,8,9,10,11,12,13,14,15,16,17,18,19,20,21,22,23,24,25,26,27,28,29,30,31,32,33,34,35,36,37,38,39,40,41,42,43,44,45,46,47,48,49,50,51,52,53,54,55,56,57,58,59,60,61,62,63,64,65,66,67,68,69,70,71,72,73,74,75,76,77,78,79,80,81,82,83,84,85,86,87,88,89,90,91,92,93,94,95,96,97,98,99,100,101,102,103,104,105,106,107,108,109,110,111,112,113,114,115,116,117,118,119,120,121,122,123,124,125,126,127,128,129,130,131,132,133,134,135,136,137,138,139,140,141,142,143,144,145,146,147,148,149,150,151,152,153,154,155,156,157,158,159,160,161,162,163,164,165,166,167,168,169,170,171,172,173,174,175,176,177,178,179,180,181,182,183,184,185,186,187,188,189,190,191,192,193,194,195,196,197,198,199,200,201,202,203,204,205,206,207,208,209,210,211,212,213,214,215,216,217,218,219,220,221,222,223,224,225,226,227,228,229,230,231,232,233,234,235,236,237,238,239,240,241,242,243,244,245,246,247,248,249,250,251,252,253,254,255,256,257,258,259,260,261,262,263,264,265,266,267,268,269,270,271,272,273,274,275,276,277,278,279,280,281,282,283,284,285,286,287,288,289,290,291,292,293,294,295,296,297,298,299,300,301,302,303,304,305,306],"tree_info":[0,0,0,0,0,0,0,0,0,0,0,0,0,0,0,0,0,0,0,0,0,0,0,0,0,0,0,0,0,0,0,0,0,0,0,0,0,0,0,0,0,0,0,0,0,0,0,0,0,0,0,0,0,0,0,0,0,0,0,0,0,0,0,0,0,0,0,0,0,0,0,0,0,0,0,0,0,0,0,0,0,0,0,0,0,0,0,0,0,0,0,0,0,0,0,0,0,0,0,0,0,0,0,0,0,0,0,0,0,0,0,0,0,0,0,0,0,0,0,0,0,0,0,0,0,0,0,0,0,0,0,0,0,0,0,0,0,0,0,0,0,0,0,0,0,0,0,0,0,0,0,0,0,0,0,0,0,0,0,0,0,0,0,0,0,0,0,0,0,0,0,0,0,0,0,0,0,0,0,0,0,0,0,0,0,0,0,0,0,0,0,0,0,0,0,0,0,0,0,0,0,0,0,0,0,0,0,0,0,0,0,0,0,0,0,0,0,0,0,0,0,0,0,0,0,0,0,0,0,0,0,0,0,0,0,0,0,0,0,0,0,0,0,0,0,0,0,0,0,0,0,0,0,0,0,0,0,0,0,0,0,0,0,0,0,0,0,0,0,0,0,0,0,0,0,0,0,0,0,0,0,0,0,0,0,0,0,0,0,0,0,0,0,0,0,0,0,0,0,0,0,0,0,0,0,0],"trees":[{"base_weights":[2.9591817E-4,-4.6719614E-1,7.715499E-2,-6.2428063E-1,-2.4769516E-1,-7.463879E-2,8.749572E-2,-6.7542946E-1,-3.1953475E-1,-2.8430417E-1,-1.04102425E-1,-5.01784E-3,-1.5252268E-1,6.593798E-2,9.6281245E-2,-7.3358613E-1,-5.7540727E-1,-4.4299167E-1,-2.0677109E-1,-3.800027E-1,-1.9308953E-1,-2.3864229E-1,-4.636058E-2,-6.779193E-2,2.3703707E-2,-2.6358786E-1,-6.83886E-2,7.9674765E-2,-9.8484054E-2,8.193338E-2,9.9002585E-2,-7.706365E-1,-6.028889E-1,-5.977879E-1,-3.1064814E-1,-5.7642853E-1,-4.0223664E-1,-2.815534E-1,-1.6378076E-1,-2.6070634E-1,-4.9503487E-1,-1.3592798E-1,-2.4828556E-1,-3.2936344E-1,-1.7164403E-1,-9.39724E-2,3.990794E-3,-3.067729E-1,-4.5156423E-2,-2.5038106E-2,5.8060184E-2,-3.481806E-1,-2.0307839E-1,-1.22216E-1,-3.5400957E-2,1.3295293E-2,8.871686E-2,-4.7379705E-1,8.9002095E-2,5.7025436E-2,8.901337E-2,-8.636363E-2,9.9028505E-2,-8.239742E-1,-7.319509E-1,-7.173955E-1,-5.470782E-1,-6.0466826E-1,-2.8242424E-1,-4.4598928E-1,-2.5519478E-1,-6.208754E-1,-4.6532255E-1,-5.035812E-1,-3.6591795E-1,-3.9020976E-1,-2.5423142E-1,-2.6794118E-1,-1.2510869E-1,-4.185737E-1,9.0941705E-2,-4.426719E-1,-6.0736036E-1,-2.012224E-1,9.5078036E-2,-1.9979014E-1,-3.800952E-1,-4.5485714E-1,-2.5814694E-1,-1.9898373E-1,-9.244186E-2,-1.3776594E-1,-6.351351E-2,-7.155963E-2,2.9273288E-2,-4.4742265E-1,-2.1677418E-1,-1.4029604E-1,-1.6862165E-2,-9.243697E-2,2.1428574E-2,3.758206E-2,7.7783644E-2,-3.8637254E-1,-2.636559E-1,-3.1617162E-1,-1.8368036E-1,-2.006006E-1,-1.04192436E-1,-5.8952212E-2,-7.6141756E-4,-7.956521E-2,3.585333E-2,6.580075E-2,9.577806E-2,-6.229792E-1,-3.4995222E-1,4.229075E-2,9.192116E-2,3.0287864E-2,7.282823E-2,8.37604E-2,9.505552E-2,3.529412E-2,-1.2499999E-2,9.371184E-2,9.969145E-2,-2.5220236E-2,-2.3826137E-2,-2.2556603E-2,-1.989842E-2,-2.3058703E-2,-2.0065298E-2,-1.823639E-2,-1.5507368E-2,-1.8623648E-2,-1.6141392E-2,-4.430769E-3,-1.0990098E-2,-2.1119999E-2,-1.2110429E-2,-1.070625E-2,-6.019802E-3,-1.7014924E-2,-2.1773195E-2,-1.5910111E-2,-8.749999E-3,-1.555102E-2,-7.1428567E-3,-5.353846E-3,-1.1346874E-2,-7.049999E-3,-1.4892857E-2,-5.0806445E-3,-8.809644E-3,-1.0224E-2,-6.736111E-3,-4.6506743E-3,-1.3818896E-3,-1.632353E-2,-1.1225911E-2,-2.030769E-2,2.9972803E-3,-1.5766483E-2,-1.1403713E-2,-1.9945377E-2,-1.5556502E-2,-7.4902275E-3,-3.605978E-3,-7.25E-3,2.9963504E-3,-8.007352E-3,-4.483496E-3,-1.3237894E-2,-9.869792E-3,-1.4819999E-2,-6.346153E-3,-6.3867182E-3,-1.3603448E-2,-4.317343E-3,-7.959459E-3,-1.8633538E-3,-1.4749999E-2,-1.8499998E-3,-5.1896097E-3,-3.0727761E-3,-9.256755E-4,-1.5196077E-3,-1.07727265E-2,-2.0618545E-4,1.3362445E-3,-1.4699999E-2,2.625E-3,-1.1733333E-2,-4.324324E-3,-4.9940827E-3,-2.6470574E-4,-2.942675E-3,-3.0317446E-4,-3.2670326E-3,1.8518629E-5,-8.293735E-4,1.2664836E-3,1.0738266E-4,1.4565848E-3,1.2631589E-4,2.4486398E-3,-1.3765586E-2,-1.0166128E-2,-1.7125E-2,-7.391402E-3,-1.2917646E-2,-8.109588E-3,-6.031645E-3,-3.4129212E-3,-3.1999997E-3,-8.733727E-3,-2.6666664E-3,-5.2355207E-3,-2.2335101E-3,-3.0071585E-4,-1.2749999E-3,9.5927605E-4,-6.793478E-3,-1.4741571E-3,-1.4325258E-3,1.4528728E-3,1.2236416E-3,2.4539488E-3,2.581338E-3,2.9925925E-3,-2.1403845E-2,-1.6687872E-2,-1.2884936E-2,-8.478947E-3,1.7183099E-3,-5.2E-3,2.4819968E-3,2.897942E-3,-2.9794518E-3,1.160302E-3,4.3882988E-4,2.3627959E-3,2.162175E-3,2.6975456E-3,2.8570886E-3,1.06436866E-10,-2.4999997E-3,2.75E-3,2.97E-3,2.5798355E-3,-2.4999997E-3,2.990963E-3],"categories":[],"categories_nodes":[],"categories_segments":[],"categories_sizes":[],"default_left":[0,0,0,0,0,0,0,0,0,0,0,0,0,0,0,0,0,0,0,0,0,0,0,0,0,0,0,0,0,0,0,0,0,0,0,0,0,0,0,0,0,0,0,0,0,0,0,0,0,0,0,0,0,0,0,0,0,0,0,0,0,0,0,0,0,0,0,0,0,0,0,0,0,0,0,0,0,0,0,0,0,0,0,0,0,0,0,0,0,0,0,0,0,0,0,0,0,0,0,0,0,0,0,0,0,0,0,0,0,0,0,0,0,0,0,0,0,0,0,0,0,0,0,0,0,0,0,0,0,0,0,0,0,0,0,0,0,0,0,0,0,0,0,0,0,0,0,0,0,0,0,0,0,0,0,0,0,0,0,0,0,0,0,0,0,0,0,0,0,0,0,0,0,0,0,0,0,0,0,0,0,0,0,0,0,0,0,0,0,0,0,0,0,0,0,0,0,0,0,0,0,0,0,0,0,0,0,0,0,0,0,0,0,0,0,0,0,0,0,0,0,0,0,0,0,0,0,0,0,0,0,0,0,0,0,0,0,0,0,0,0,0,0,0,0,0,0,0,0,0,0,0,0],"id":0,"left_children":[1,3,5,7,9,11,13,15,17,19,21,23,25,27,29,31,33,35,37,39,41,43,45,47,49,51,53,55,57,59,61,63,65,67,69,71,73,75,77,79,81,83,85,87,89,91,93,95,97,99,101,103,105,107,109,111,113,115,117,119,121,123,125,127,129,131,133,135,137,139,141,143,145,147,149,151,153,155,157,159,161,163,165,167,169,171,173,175,177,179,181,183,185,187,189,191,193,195,197,199,201,203,205,207,209,211,213,215,217,219,221,223,225,227,229,231,233,235,237,239,241,243,245,247,-1,249,251,-1,-1,-1,-1,-1,-1,-1,-1,-1,-1,-1,-1,-1,-1,-1,-1,-1,-1,-1,-1,-1,-1,-1,-1,-1,-1,-1,-1,-1,-1,-1,-1,-1,-1,-1,-1,-1,-1,-1,-1,-1,-1,-1,-1,-1,-1,-1,-1,-1,-1,-1,-1,-1,-1,-1,-1,-1,-1,-1,-1,-1,-1,-1,-1,-1,-1,-1,-1,-1,-1,-1,-1,-1,-1,-1,-1,-1,-1,-1,-1,-1,-1,-1,-1,-1,-1,-1,-1,-1,-1,-1,-1,-1,-1,-1,-1,-1,-1,-1,-1,-1,-1,-1,-1,-1,-1,-1,-1,-1,-1,-1,-1,-1,-1,-1,-1,-1,-1,-1,-1,-1,-1,-1,-1,-1,-1],"loss_changes":[1.148671E4,1.5562139E3,4.3095667E2,4.0987207E2,9.895569E1,9.495002E1,4.8676147E1,1.3061621E2,5.2573242E1,1.3089807E2,2.9719292E1,1.6673662E1,7.7213165E1,1.6810858E2,7.1220703E0,6.849609E1,4.89187E1,9.584137E0,6.3162003E0,1.00336426E2,2.4209991E1,6.927269E0,6.4227962E0,1.5689798E1,1.0626772E1,1.8161957E1,8.34828E0,4.1226044E1,4.038726E2,5.130188E0,7.463379E-1,2.228418E1,1.973816E1,1.6406494E1,4.749504E0,1.7851868E0,4.9171906E0,2.0412369E0,5.0378532E0,1.9966553E2,2.1646362E1,5.6989143E1,2.4904633E1,4.2350082E0,1.417242E0,1.8280354E0,2.4909592E0,3.080246E0,7.139257E0,8.219828E0,1.500391E0,4.6887207E0,4.5028152E0,2.5037174E0,2.3804724E0,1.725522E1,9.775879E0,3.5107025E1,5.180721E-1,2.7222576E0,7.1165466E-1,8.987522E-1,5.316162E-1,1.6464844E0,8.314941E0,2.045288E0,3.5778198E0,7.69458E0,1.8113308E0,1.7570992E0,2.4902248E0,1.2617111E0,1.2452965E0,1.3015289E0,2.2957E0,2.2408638E0,1.8876762E0,9.986839E-1,2.168251E0,1.36241455E1,7.7454414E0,1.2993103E1,5.689728E0,1.153125E1,1.3706651E0,9.620438E0,3.136917E0,1.5622292E0,2.6699524E0,1.7591095E0,2.0521255E0,1.5010195E0,1.0312598E0,1.9474533E0,5.3949916E-1,2.2521057E0,1.9062486E0,2.0907078E0,1.1218495E0,1.6408997E0,1.5864576E0,6.817341E-1,5.3470993E-1,3.3562927E0,2.3269958E0,1.4732094E0,2.1357574E0,2.8005257E0,1.5503912E0,1.3164172E0,1.616453E0,7.184267E0,6.9698515E0,5.6958885E0,1.7793579E0,4.830902E0,5.485367E0,7.434548E-1,1.4679146E-1,2.609913E0,1.3976955E0,8.670349E-1,1.8105316E-1,1.21323526E-1,0E0,6.865692E-1,1.9104004E-1,0E0,0E0,0E0,0E0,0E0,0E0,0E0,0E0,0E0,0E0,0E0,0E0,0E0,0E0,0E0,0E0,0E0,0E0,0E0,0E0,0E0,0E0,0E0,0E0,0E0,0E0,0E0,0E0,0E0,0E0,0E0,0E0,0E0,0E0,0E0,0E0,0E0,0E0,0E0,0E0,0E0,0E0,0E0,0E0,0E0,0E0,0E0,0E0,0E0,0E0,0E0,0E0,0E0,0E0,0E0,0E0,0E0,0E0,0E0,0E0,0E0,0E0,0E0,0E0,0E0,0E0,0E0,0E0,0E0,0E0,0E0,0E0,0E0,0E0,0E0,0E0,0E0,0E0,0E0,0E0,0E0,0E0,0E0,0E0,0E0,0E0,0E0,0E0,0E0,0E0,0E0,0E0,0E0,0E0,0E0,0E0,0E0,0E0,0E0,0E0,0E0,0E0,0E0,0E0,0E0,0E0,0E0,0E0,0E0,0E0,0E0,0E0,0E0,0E0,0E0,0E0,0E0,0E0,0E0,0E0,0E0,0E0,0E0,0E0,0E0,0E0],"parents":[2147483647,0,0,1,1,2,2,3,3,4,4,5,5,6,6,7,7,8,8,9,9,10,10,11,11,12,12,13,13,14,14,15,15,16,16,17,17,18,18,19,19,20,20,21,21,22,22,23,23,24,24,25,25,26,26,27,27,28,28,29,29,30,30,31,31,32,32,33,33,34,34,35,35,36,36,37,37,38,38,39,39,40,40,41,41,42,42,43,43,44,44,45,45,46,46,47,47,48,48,49,49,50,50,51,51,52,52,53,53,54,54,55,55,56,56,57,57,58,58,59,59,60,60,61,61,62,62,63,63,64,64,65,65,66,66,67,67,68,68,69,69,70,70,71,71,72,72,73,73,74,74,75,75,76,76,77,77,78,78,79,79,80,80,81,81,82,82,83,83,84,84,85,85,86,86,87,87,88,88,89,89,90,90,91,91,92,92,93,93,94,94,95,95,96,96,97,97,98,98,99,99,100,100,101,101,102,102,103,103,104,104,105,105,106,106,107,107,108,108,109,109,110,110,111,111,112,112,113,113,114,114,115,115,116,116,117,117,118,118,119,119,120,120,121,121,122,122,123,123,125,125,126,126],"right_children":[2,4,6,8,10,12,14,16,18,20,22,24,26,28,30,32,34,36,38,40,42,44,46,48,50,52,54,56,58,60,62,64,66,68,70,72,74,76,78,80,82,84,86,88,90,92,94,96,98,100,102,104,106,108,110,112,114,116,118,120,122,124,126,128,130,132,134,136,138,140,142,144,146,148,150,152,154,156,158,160,162,164,166,168,170,172,174,176,178,180,182,184,186,188,190,192,194,196,198,200,202,204,206,208,210,212,214,216,218,220,222,224,226,228,230,232,234,236,238,240,242,244,246,248,-1,250,252,-1,-1,-1,-1,-1,-1,-1,-1,-1,-1,-1,-1,-1,-1,-1,-1,-1,-1,-1,-1,-1,-1,-1,-1,-1,-1,-1,-1,-1,-1,-1,-1,-1,-1,-1,-1,-1,-1,-1,-1,-1,-1,-1,-1,-1,-1,-1,-1,-1,-1,-1,-1,-1,-1,-1,-1,-1,-1,-1,-1,-1,-1,-1,-1,-1,-1,-1,-1,-1,-1,-1,-1,-1,-1,-1,-1,-1,-1,-1,-1,-1,-1,-1,-1,-1,-1,-1,-1,-1,-1,-1,-1,-1,-1,-1,-1,-1,-1,-1,-1,-1,-1,-1,-1,-1,-1,-1,-1,-1,-1,-1,-1,-1,-1,-1,-1,-1,-1,-1,-1,-1,-1,-1,-1,-1,-1],"split_conditions":[2.1281317E1,1.8700798E1,2.493405E1,1E0,1.2246469E-16,-1.8369701E-16,0E0,5.749451E-1,4.9029514E-1,6.4562947E-1,4.9029514E-1,6.168911E-1,7.2398776E-1,9.659258E-1,3.0136507E1,9.659258E-1,9.659258E-1,3.8701713E-1,4.8182404E-1,8.500715E-1,8.587272E-1,4.3276078E-1,5.9359896E-1,-7.0710677E-1,-7.0710677E-1,6.226073E-1,8.1077176E-1,7.1909004E-1,0E0,7.7501714E-1,3.8701713E-1,4.6470162E-1,4.2060646E-1,1.4470885E0,5.062664E-1,1.3835052E0,1.688329E1,3.7333915E-1,5.352028E-1,-2.5881904E-1,-2.5881904E-1,-2.5881904E-1,-2.5881904E-1,3.400395E-1,5.51089E-1,1.9460896E1,5.1898384E-1,6.6239965E-1,4.9029514E-1,7.9312766E-1,7.468313E-1,7.3886013E-1,8.282588E-1,6.8898165E-1,9.3181914E-1,-5E-1,2.7208443E1,1.0967581E0,9.8029685E-1,8.660254E-1,8.660254E-1,3.7854013E-1,9.1110873E-1,4.3276078E-1,8.660254E-1,3.64392E-1,4.6470162E-1,1.79249E1,6.64977E-1,3.873135E-1,5.934093E-1,2.828652E-1,4.735191E-1,3.7579749E0,1.4585808E-1,5.554486E-1,9.277084E-1,5.056118E-1,6.569912E-1,4.9721962E-1,-7.818315E-1,5.253271E-1,5.749451E-1,7.7501714E-1,-7.818315E-1,7.289556E-1,1.9306444E1,4.6470162E-1,1.4083097E0,2.8168464E-1,2.04139E1,1.2262598E-1,6.567147E-1,1.3427054E0,4.9029514E-1,8.905856E-1,1.0602832E0,4.1788107E-1,6.115337E-1,9.4847304E-1,1.6781351E-1,4.5500758E-1,4.8182404E-1,5.4880095E-1,6.3987255E-1,2.2807105E0,2.3236132E1,2.562849E0,1.556329E0,1.1494412E0,9.0700763E-1,5.9359896E-1,5.6868315E-1,-5E-1,2.9798307E1,1.1383103E0,1.2522855E0,1.0619028E0,1.1504835E0,2.692969E1,5.9359896E-1,9.1933477E-1,2.567436E0,4.5500758E-1,-7.8668026E-4,8.660254E-1,3.8701713E-1,-4.998981E-3,-4.6334364E-3,-4.2450274E-3,-3.7898335E-3,-4.555905E-3,-3.7622799E-3,-3.3990284E-3,-3.0376299E-3,-3.4919952E-3,-3.209115E-3,-2.2671854E-3,-2.203378E-3,-2.7542182E-3,-2.3086176E-3,-2.3614382E-3,-1.7934253E-3,-2.9822628E-3,-3.1903712E-3,-3.6302432E-3,-3.3515757E-3,-3.139572E-3,-3.4613344E-3,-1.3014717E-3,-2.4095203E-3,-2.47735E-3,-2.2781033E-3,-1.959178E-3,-1.8970714E-3,-2.1906015E-3,-1.5214517E-3,-1.3500958E-3,-6.1920687E-4,-3.1001063E-3,-2.392087E-3,-5.1006693E-3,3.0343954E-3,-3.1190482E-3,-2.232309E-3,-3.8409214E-3,-2.957985E-3,-1.7342078E-3,-9.313318E-4,-2.484323E-3,4.7086696E-3,-1.7173431E-3,-1.1384934E-3,-2.8381455E-3,-2.521978E-3,-2.5479107E-3,-2.3949556E-3,-2.067572E-3,-1.8915626E-3,-1.0358298E-3,-1.3000101E-3,-5.5169733E-4,-1.710894E-3,-5.8577384E-4,-1.3727045E-3,-8.132154E-4,-2.0181223E-4,-5.938687E-4,-1.7437931E-3,-4.0246807E-5,5.133451E-4,-2.047238E-3,7.109794E-4,-2.6376576E-3,-1.1269512E-3,-1.2997254E-3,-1.9198428E-4,-8.542471E-4,-9.511021E-5,-1.1166313E-3,-1.2910325E-4,-4.4052512E-4,4.766942E-4,4.128404E-5,8.1275846E-4,4.9507784E-5,1.5594184E-3,-2.7003537E-3,-2.1546104E-3,-2.6202681E-3,-1.7373338E-3,-2.199132E-3,-1.5294995E-3,-1.5645123E-3,-1.0017157E-3,-1.046061E-3,-2.0261793E-3,-7.455892E-4,-1.5013252E-3,-6.377125E-4,-1.06698266E-4,-4.4867097E-4,4.129582E-4,-1.5001545E-3,-5.0190074E-4,-3.9238515E-4,6.4793124E-4,5.690793E-4,1.7224697E-3,2.0653491E-3,6.552928E-3,-3.9580776E-3,-3.0041025E-3,-2.4314425E-3,-2.2607849E-3,1.0360599E-3,-1.5405831E-3,2.007261E-3,3.194825E-3,-5.477569E-4,5.18876E-4,1.928848E-4,1.6379984E-3,1.3138618E-3,2.366032E-3,3.0406548E-3,-7.029236E-5,-5.6501984E-4,3.4443394E-3,4.5459373E-3,2.014184E-3,-1.2211212E-3,6.0757617E-3],"split_indices":[0,0,0,45,45,46,47,3,3,3,3,3,3,46,0,45,45,3,4,30,30,3,3,45,45,3,3,3,45,3,3,3,3,38,4,25,0,31,3,45,45,45,45,32,38,0,18,4,3,3,21,4,21,4,3,45,0,3,38,45,45,32,3,3,45,20,3,0,32,35,15,27,5,37,27,8,16,17,3,20,47,20,3,3,47,3,0,4,14,27,0,23,22,12,5,5,34,28,39,4,23,5,4,3,7,37,0,37,16,34,4,3,3,45,0,38,3,5,38,0,3,3,7,5,0,46,7,0,0,0,0,0,0,0,0,0,0,0,0,0,0,0,0,0,0,0,0,0,0,0,0,0,0,0,0,0,0,0,0,0,0,0,0,0,0,0,0,0,0,0,0,0,0,0,0,0,0,0,0,0,0,0,0,0,0,0,0,0,0,0,0,0,0,0,0,0,0,0,0,0,0,0,0,0,0,0,0,0,0,0,0,0,0,0,0,0,0,0,0,0,0,0,0,0,0,0,0,0,0,0,0,0,0,0,0,0,0,0,0,0,0,0,0,0,0,0,0,0,0,0,0,0,0],"split_type":[0,0,0,0,0,0,0,0,0,0,0,0,0,0,0,0,0,0,0,0,0,0,0,0,0,0,0,0,0,0,0,0,0,0,0,0,0,0,0,0,0,0,0,0,0,0,0,0,0,0,0,0,0,0,0,0,0,0,0,0,0,0,0,0,0,0,0,0,0,0,0,0,0,0,0,0,0,0,0,0,0,0,0,0,0,0,0,0,0,0,0,0,0,0,0,0,0,0,0,0,0,0,0,0,0,0,0,0,0,0,0,0,0,0,0,0,0,0,0,0,0,0,0,0,0,0,0,0,0,0,0,0,0,0,0,0,0,0,0,0,0,0,0,0,0,0,0,0,0,0,0,0,0,0,0,0,0,0,0,0,0,0,0,0,0,0,0,0,0,0,0,0,0,0,0,0,0,0,0,0,0,0,0,0,0,0,0,0,0,0,0,0,0,0,0,0,0,0,0,0,0,0,0,0,0,0,0,0,0,0,0,0,0,0,0,0,0,0,0,0,0,0,0,0,0,0,0,0,0,0,0,0,0,0,0,0,0,0,0,0,0,0,0,0,0,0,0,0,0,0,0,0,0],"sum_hessian":[3.19686E5,4.5137E4,2.74549E5,2.6308E4,1.8829E4,1.751E4,2.57039E5,2.2526E4,3.782E3,1.5003E4,3.826E3,9.246E3,8.264E3,7.4425E4,1.82614E5,1.424E4,8.286E3,1.804E3,1.978E3,7.32E3,7.683E3,1.148E3,2.678E3,2.902E3,6.344E3,3.561E3,4.703E3,6.8687E4,5.738E3,2.9119E4,1.53495E5,1.1091E4,3.149E3,7.639E3,6.47E2,4.19E2,1.385E3,7.2E2,1.258E3,3.595E3,3.725E3,3.776E3,3.907E3,4.86E2,6.62E2,1.376E3,1.302E3,2.5E2,2.652E3,2.623E3,3.721E3,1.483E3,2.078E3,1.786E3,2.917E3,8.235E3,6.0452E4,1.911E3,3.827E3,6.447E3,2.2672E4,2.1E1,1.53474E5,4.654E3,6.437E3,1.028E3,2.121E3,7.475E3,1.64E2,1.86E2,4.61E2,2.96E2,1.23E2,3.62E2,1.023E3,1.42E2,5.78E2,3.39E2,9.19E2,2.481E3,1.114E3,2.544E3,1.181E3,2.944E3,8.32E2,2.858E3,1.049E3,1.74E2,3.12E2,4.91E2,1.71E2,5.63E2,8.13E2,3.26E2,9.76E2,9.6E1,1.54E2,6.07E2,2.045E3,1.07E3,1.553E3,1.827E3,1.894E3,1.019E3,4.64E2,3.02E2,1.776E3,3.32E2,1.454E3,1.736E3,1.181E3,1.609E3,6.626E3,1.4242E4,4.621E4,8.65E2,1.046E3,2.26E2,3.601E3,2.396E3,4.051E3,1.2136E4,1.0536E4,1.6E1,5E0,1.7031E4,1.36443E5,2.964E3,1.69E3,4.981E3,1.456E3,4.93E2,5.35E2,6.97E2,1.424E3,6.012E3,1.463E3,6.4E1,1E2,2.4E1,1.62E2,1.59E2,3.02E2,2E2,9.6E1,8.8E1,3.5E1,3.42E2,2E1,6.4E1,9.59E2,5.9E1,8.3E1,1.85E2,3.93E2,1.24E2,2.15E2,6.66E2,2.53E2,6.45E2,1.836E3,1.2E1,1.102E3,1.091E3,1.453E3,7.13E2,4.68E2,1.841E3,1.103E3,1.1E1,8.21E2,1.223E3,1.635E3,4.74E2,5.75E2,1.49E2,2.5E1,2.55E2,5.7E1,2.7E2,2.21E2,1.6E2,1.1E1,1.79E2,3.84E2,3.7E2,4.43E2,3.05E2,2.1E1,2.9E2,6.86E2,8.9E1,7E0,4.4E1,1.1E2,5.06E2,1.01E2,1.56E2,1.889E3,9.09E2,1.61E2,4.62E2,1.091E3,4.46E2,1.381E3,9.4E1,1.8E3,4E2,6.19E2,2.3E1,4.41E2,8.4E1,2.18E2,1.421E3,3.55E2,1.64E2,1.68E2,1.196E3,2.58E2,1.318E3,4.18E2,5.19E2,6.62E2,2.75E2,1.334E3,8.66E2,5.76E3,5.557E3,8.685E3,1.3406E4,3.2804E4,3.63E2,5.02E2,4.77E2,5.69E2,2.12E2,1.4E1,1.221E3,2.38E3,1.45E2,2.251E3,3.75E2,3.676E3,4.192E3,7.944E3,1.0516E4,2E1,5E0,1.1E1,1.0099E4,6.932E3,5E0,1.36438E5],"tree_param":{"num_deleted":"0","num_feature":"51","num_nodes":"253","size_leaf_vector":"1"}},{"base_weights":[1.6541893E-3,-4.4920084E-1,7.810004E-2,-6.1084896E-1,-2.3591946E-1,-6.542245E-2,8.716247E-2,-6.629202E-1,-3.0097342E-1,-2.7376977E-1,-9.100554E-2,-6.0837315E-3,-1.3729942E-1,7.469422E-2,2.9995039E-3,-7.0035166E-1,-5.680362E-1,-3.785514E-1,-2.0090252E-1,-1.958246E-1,-3.4607628E-1,-1.7092426E-1,-4.289575E-2,-4.9252167E-2,1.4482191E-2,-2.870758E-1,-1.0252931E-1,5.3164262E-2,8.50569E-2,-7.432909E-1,-5.476979E-1,-5.762739E-1,-2.8176793E-1,-4.334058E-1,-2.785808E-1,-2.4253553E-1,-1.5775335E-1,-2.9205492E-1,9.730016E-2,-4.798378E-1,-2.8027174E-1,-2.6179487E-1,-1.4046192E-1,-6.363168E-2,1.94745E-2,-1.1770924E-1,-4.5950566E-3,-7.965179E-2,3.1385582E-2,-3.9052925E-1,-2.506329E-1,-1.4137825E-1,-5.4688077E-2,7.2736666E-2,-1.4470226E-2,4.5622196E-2,8.805826E-2,-7.9646E-1,-7.1334565E-1,-6.3207865E-1,-4.63152E-1,-5.953151E-1,-4.540925E-1,-3.6953124E-1,-6.851851E-2,-5.283251E-1,-3.934359E-1,-4.4554454E-1,-2.526475E-1,-2.2201017E-1,-5.1186436E-1,-1.3863319E-1,-2.8932038E-1,-3.8456458E-1,-2.2465464E-1,-7.3333327E-3,9.888358E-2,-4.2055044E-1,-5.6923074E-1,-2.4615908E-1,-4.1391614E-1,-1.0111111E-1,-3.089701E-1,-1.3227792E-1,-4.181818E-1,-8.608391E-2,-1.1650448E-3,-9.358974E-2,3.4912284E-2,-2.2155963E-1,-9.291939E-2,-2.4085633E-2,3.0595817E-2,-1.620253E-1,-5.095168E-2,5.2452865E-3,5.9440844E-2,-4.336508E-1,-8E-2,-1.9524589E-1,-3.3086124E-1,-1.1429843E-1,-1.9914284E-1,-1.2037033E-2,-8.8657714E-2,3.0734176E-2,9.131636E-2,-1.8344317E-1,9.736521E-2,3.414292E-2,9.115538E-2,8.307642E-2,9.7922124E-2,-2.4281273E-2,-2.1684593E-2,-2.201067E-2,-1.9137152E-2,-1.946566E-2,-1.1900826E-2,-1.5034588E-2,-1.079503E-2,-1.6465444E-2,-1.8765446E-2,-1.4130488E-2,-4.723404E-3,-1.3550561E-2,-5.325E-3,-2.5531903E-4,-1.2375E-2,-2.0226803E-2,-1.4429032E-2,-5.142857E-3,-1.2249725E-2,-1.1088607E-2,-2.0608695E-2,-7.2554857E-3,-1.5874999E-2,-6.127397E-3,-1.336842E-2,-1.65E-2,-2.4999997E-3,-5.1875E-3,-1.2789472E-3,-1.3016128E-2,-2.0714283E-3,-1.3570295E-2,-8.806171E-3,-9.086805E-3,-5.9148762E-3,2.9824094E-3,-2.4999997E-3,-1.7262498E-2,-1.1808739E-2,-1.7854525E-2,-1.2217104E-2,-9.540353E-3,-5.7877465E-3,-1.589224E-2,-1.1497752E-2,-1.12E-2,-1.3815787E-3,-7.973076E-3,-1.7071428E-2,-5.193227E-3,-2.9952829E-3,-6.6666654E-4,-1.632E-2,-1.618881E-3,-4.020942E-3,5.751635E-4,-4.947368E-3,-1.6901407E-3,-1.2375E-2,-1.7068963E-3,1.3567252E-3,-4.2407406E-3,-1.336842E-2,-2.2999998E-3,-6.385321E-3,2.0465127E-4,-1.9748425E-3,1.0375205E-3,-7.3333327E-3,-2.3231704E-3,-1.0418918E-2,-9.301074E-4,-4.1666664E-3,1.8494714E-4,-1.0285714E-2,1.8982909E-3,-2.185714E-3,-1.5347221E-2,-7.83E-3,-7.1249995E-3,2.8636362E-3,-7.648255E-3,-3.5280895E-3,-8.975069E-3,-1.5672414E-2,-4.7763153E-3,-2.3680443E-3,-5.680158E-3,-1.3657894E-2,-1.5515623E-3,1.0273225E-3,-4.1770074E-3,-1.7751853E-3,1.421802E-4,1.5320502E-3,2.8109865E-4,2.8079296E-3,-7.221064E-3,-3.9117197E-3,-1.7142856E-3,2.9261135E-3,-6.378243E-4,1.3461907E-3,-1.1249998E-3,2.7572114E-3,2.3003106E-3,2.7382718E-3,2.781907E-3,2.9766446E-3],"categories":[],"categories_nodes":[],"categories_segments":[],"categories_sizes":[],"default_left":[0,0,0,0,0,0,0,0,0,0,0,0,0,0,0,0,0,0,0,0,0,0,0,0,0,0,0,0,0,0,0,0,0,0,0,0,0,0,0,0,0,0,0,0,0,0,0,0,0,0,0,0,0,0,0,0,0,0,0,0,0,0,0,0,0,0,0,0,0,0,0,0,0,0,0,0,0,0,0,0,0,0,0,0,0,0,0,0,0,0,0,0,0,0,0,0,0,0,0,0,0,0,0,0,0,0,0,0,0,0,0,0,0,0,0,0,0,0,0,0,0,0,0,0,0,0,0,0,0,0,0,0,0,0,0,0,0,0,0,0,0,0,0,0,0,0,0,0,0,0,0,0,0,0,0,0,0,0,0,0,0,0,0,0,0,0,0,0,0,0,0,0,0,0,0,0,0,0,0,0,0,0,0,0,0,0,0,0,0,0,0,0,0,0,0,0,0,0,0,0,0,0,0,0,0,0,0,0,0,0,0,0,0,0,0,0,0,0,0,0,0,0,0],"id":1,"left_children":[1,3,5,7,9,11,13,15,17,19,21,23,25,27,-1,29,31,33,35,37,39,41,43,45,47,49,51,53,55,57,59,61,63,65,67,69,71,73,75,77,79,81,83,85,87,89,91,93,95,97,99,101,103,105,107,109,111,113,115,117,119,121,123,125,127,129,131,133,135,137,139,141,143,145,147,-1,149,151,153,155,157,159,161,163,165,167,169,171,173,175,177,179,181,183,185,187,189,191,193,195,197,199,201,203,205,207,209,211,213,215,217,219,221,-1,-1,-1,-1,-1,-1,-1,-1,-1,-1,-1,-1,-1,-1,-1,-1,-1,-1,-1,-1,-1,-1,-1,-1,-1,-1,-1,-1,-1,-1,-1,-1,-1,-1,-1,-1,-1,-1,-1,-1,-1,-1,-1,-1,-1,-1,-1,-1,-1,-1,-1,-1,-1,-1,-1,-1,-1,-1,-1,-1,-1,-1,-1,-1,-1,-1,-1,-1,-1,-1,-1,-1,-1,-1,-1,-1,-1,-1,-1,-1,-1,-1,-1,-1,-1,-1,-1,-1,-1,-1,-1,-1,-1,-1,-1,-1,-1,-1,-1,-1,-1,-1,-1,-1,-1,-1,-1,-1,-1,-1],"loss_changes":[1.1036667E4,1.6003955E3,3.5612073E2,4.2590918E2,1.0976904E2,6.935803E1,4.1160645E1,7.989746E1,2.9432251E1,8.938025E1,1.5937359E1,7.910113E0,3.8268295E1,2.9126038E1,0E0,1.0583301E2,1.4932373E1,1.1614655E1,2.947403E0,2.1553363E2,7.2324585E1,4.2759705E0,3.3509002E0,8.788609E0,9.605291E0,5.1237717E0,1.1087997E1,5.6164635E1,1.0428162E1,1.9567871E1,2.5118774E1,1.4202637E1,3.3621807E0,5.0277405E0,3.1825066E0,4.5520515E0,2.020153E0,3.577832E1,1.0463524E0,1.413916E1,2.506363E1,2.9250736E0,2.6016598E0,2.7263894E0,1.1325808E0,2.9013987E0,1.194872E0,2.1643786E0,3.752357E0,4.7724953E0,4.4989777E0,5.1298904E0,3.8774786E0,2.5676025E1,1.7997554E2,3.2563705E0,4.0167236E0,3.7404785E0,1.1963379E1,6.7717896E0,6.8200073E0,7.205078E0,4.15802E0,1.9391747E0,1.1111357E0,2.4809875E0,3.1526794E0,1.5973206E0,1.845665E0,3.0309868E0,9.1836166E-1,2.3524675E0,3.2496204E0,1.4816132E1,7.102951E0,0E0,1.899662E-1,6.5913086E0,4.2882385E0,1.6768707E1,3.7775726E0,1.3317397E0,3.2306728E0,1.4884644E0,1.6319356E0,2.195156E0,1.7181909E0,9.033969E-1,5.42205E-1,3.8543644E0,1.7729578E0,1.4467053E0,6.896384E-1,3.6872444E0,1.193799E0,8.5043555E-1,1.2569523E0,4.104336E0,1.2662045E0,2.79735E0,2.3812752E0,3.5530605E0,2.5504265E0,2.1835494E0,2.2136822E0,5.3347483E0,4.2639008E0,1.1490723E1,1.5779877E-1,2.9626932E0,1.2481308E-1,2.8487854E0,1.7617798E-1,0E0,0E0,0E0,0E0,0E0,0E0,0E0,0E0,0E0,0E0,0E0,0E0,0E0,0E0,0E0,0E0,0E0,0E0,0E0,0E0,0E0,0E0,0E0,0E0,0E0,0E0,0E0,0E0,0E0,0E0,0E0,0E0,0E0,0E0,0E0,0E0,0E0,0E0,0E0,0E0,0E0,0E0,0E0,0E0,0E0,0E0,0E0,0E0,0E0,0E0,0E0,0E0,0E0,0E0,0E0,0E0,0E0,0E0,0E0,0E0,0E0,0E0,0E0,0E0,0E0,0E0,0E0,0E0,0E0,0E0,0E0,0E0,0E0,0E0,0E0,0E0,0E0,0E0,0E0,0E0,0E0,0E0,0E0,0E0,0E0,0E0,0E0,0E0,0E0,0E0,0E0,0E0,0E0,0E0,0E0,0E0,0E0,0E0,0E0,0E0,0E0,0E0,0E0,0E0,0E0,0E0,0E0,0E0,0E0,0E0],"parents":[2147483647,0,0,1,1,2,2,3,3,4,4,5,5,6,6,7,7,8,8,9,9,10,10,11,11,12,12,13,13,15,15,16,16,17,17,18,18,19,19,20,20,21,21,22,22,23,23,24,24,25,25,26,26,27,27,28,28,29,29,30,30,31,31,32,32,33,33,34,34,35,35,36,36,37,37,38,38,39,39,40,40,41,41,42,42,43,43,44,44,45,45,46,46,47,47,48,48,49,49,50,50,51,51,52,52,53,53,54,54,55,55,56,56,57,57,58,58,59,59,60,60,61,61,62,62,63,63,64,64,65,65,66,66,67,67,68,68,69,69,70,70,71,71,72,72,73,73,74,74,76,76,77,77,78,78,79,79,80,80,81,81,82,82,83,83,84,84,85,85,86,86,87,87,88,88,89,89,90,90,91,91,92,92,93,93,94,94,95,95,96,96,97,97,98,98,99,99,100,100,101,101,102,102,103,103,104,104,105,105,106,106,107,107,108,108,109,109,110,110,111,111,112,112],"right_children":[2,4,6,8,10,12,14,16,18,20,22,24,26,28,-1,30,32,34,36,38,40,42,44,46,48,50,52,54,56,58,60,62,64,66,68,70,72,74,76,78,80,82,84,86,88,90,92,94,96,98,100,102,104,106,108,110,112,114,116,118,120,122,124,126,128,130,132,134,136,138,140,142,144,146,148,-1,150,152,154,156,158,160,162,164,166,168,170,172,174,176,178,180,182,184,186,188,190,192,194,196,198,200,202,204,206,208,210,212,214,216,218,220,222,-1,-1,-1,-1,-1,-1,-1,-1,-1,-1,-1,-1,-1,-1,-1,-1,-1,-1,-1,-1,-1,-1,-1,-1,-1,-1,-1,-1,-1,-1,-1,-1,-1,-1,-1,-1,-1,-1,-1,-1,-1,-1,-1,-1,-1,-1,-1,-1,-1,-1,-1,-1,-1,-1,-1,-1,-1,-1,-1,-1,-1,-1,-1,-1,-1,-1,-1,-1,-1,-1,-1,-1,-1,-1,-1,-1,-1,-1,-1,-1,-1,-1,-1,-1,-1,-1,-1,-1,-1,-1,-1,-1,-1,-1,-1,-1,-1,-1,-1,-1,-1,-1,-1,-1,-1,-1,-1,-1,-1,-1],"split_conditions":[2.147936E1,1.8700798E1,2.493405E1,1E0,1.2246469E-16,-1.8369701E-16,3.7339233E1,5.4389644E-1,4.214445E-1,8.3280385E-1,4.9154493E-1,-7.0710677E-1,7.476222E-1,0E0,7.445102E-3,9.659258E-1,9.659258E-1,5.72037E-2,4.6392494E-1,-2.5881904E-1,7.0308256E-1,4.2796597E-1,5.914287E-1,8.1516725E-1,4.6705884E-1,6.7031634E-1,8.8487345E-1,9.659258E-1,8.0645853E-1,4.293349E-1,4.1555506E-1,1.2778609E0,5.927031E-1,3.5321173E-1,4.2796597E-1,1E0,1.3009341E0,7.3801756E-1,6.234898E-1,-2.5881904E-1,-2.5881904E-1,1.3133264E-1,6.5122783E-1,1.18248306E-1,8.9614797E-1,6.925082E-1,1.7727796E-2,5.9727468E-2,7.180532E-1,1.2882225E-1,8.0202323E-1,9.1110873E-1,1.5111344E-1,2.7250359E1,-2.2252093E-1,3.0222174E1,9.659258E-1,8.0757424E-2,8.660254E-1,1.3685799E-1,4.7088306E-2,5.3313863E-1,1.2706271E0,1.3716327E0,2.617049E0,1.0581923E0,4.735191E-1,9.9790883E-1,1.7442113E0,1.4398615E0,1.2625953E0,1.1624062E0,6.2273866E-1,5.375944E-1,2.001054E1,-3.8235104E-3,1.9342161E0,4.412586E-1,1.1310047E-1,7.892379E-1,5.537684E-1,1.7085818E0,4.6470162E-1,1.9460896E1,8.8233346E-1,5.554486E-1,1.2885237E0,3.6643262E0,4.2394114E-1,8.8273114E-1,6.225888E-1,1.5294963E-1,4.8137167E-1,1.9111179E0,5.554486E-1,2.79552E0,8.0202323E-1,5.182709E-1,3.8463438E-1,-1.3473514E-2,1.6310857E-1,-6.5515876E-2,2.6471236E-1,1.1025234E0,9.547398E-1,2.6354912E1,6.925082E-1,9.793488E-1,8.363836E-1,6.40903E-1,4.511352E-1,8.252328E-1,2.9044003E1,-4.744598E-3,-4.1900105E-3,-4.1087E-3,-3.6426443E-3,-3.7313541E-3,-3.0128954E-3,-2.9866588E-3,-2.5204292E-3,-3.28766E-3,-3.527926E-3,-2.881184E-3,-2.437262E-3,-2.8644656E-3,-2.6217878E-3,-3.4326565E-4,-1.5887152E-3,-3.5472012E-3,-3.1018718E-3,-1.6747604E-3,-2.5782955E-3,-2.5387513E-3,-3.8681356E-3,-1.9661118E-3,-2.6516917E-3,-1.6987832E-3,-1.9456178E-3,-2.7623377E-3,-2.3308736E-3,-1.2778168E-3,-5.977615E-4,-1.7144831E-3,-7.6654507E-4,-2.8746699E-3,-1.9369259E-3,-2.2607483E-3,-1.4769938E-3,3.607562E-3,-9.317019E-4,-3.2461667E-3,-2.5882E-3,-3.4747235E-3,-2.3623814E-3,-2.0426952E-3,-1.5339053E-3,-3.3457987E-3,-2.6523622E-3,-2.3784197E-3,-7.946991E-4,-2.2276398E-3,-2.2044135E-3,-1.364316E-3,-1.0362355E-3,-4.6418756E-4,-3.0997328E-3,-5.140918E-4,-1.0737546E-3,8.480519E-5,-9.571068E-4,-6.371246E-4,-3.5506438E-3,-7.0822367E-4,4.4028176E-4,-1.4155513E-3,-2.0259279E-3,-7.360893E-4,-1.2578291E-3,1.0209159E-4,-5.6397985E-4,3.7336838E-4,-1.8992543E-3,-5.707464E-4,-1.9644639E-3,-2.8345996E-4,-9.295567E-4,7.265496E-5,-1.4077207E-3,1.1051053E-3,-4.4052777E-4,-2.5542723E-3,-1.999686E-3,-3.0238098E-3,4.9372995E-4,-1.8235275E-3,-1.4069835E-3,-1.7071333E-3,-2.8859128E-3,-1.5356677E-3,-6.1619526E-4,-1.5429426E-3,-2.8195125E-3,-4.5767336E-4,3.955344E-4,-1.1533726E-3,-6.115085E-4,5.1192375E-5,8.1508997E-4,1.2145589E-4,3.3317434E-3,-2.5245775E-3,-1.5898799E-3,-1.1212144E-3,3.4852927E-3,-2.2383596E-4,6.882105E-4,-5.480692E-4,2.4635433E-3,1.5472331E-3,2.5215705E-3,2.8301761E-3,4.8806663E-3],"split_indices":[0,0,0,45,45,46,0,24,24,30,18,45,18,45,0,45,45,43,24,45,18,18,18,18,18,18,18,46,21,24,24,18,24,24,18,49,30,18,48,45,45,23,8,43,30,18,43,19,21,43,9,8,19,0,48,0,45,43,45,43,43,32,24,14,33,34,10,10,14,10,9,40,18,24,0,0,8,24,43,18,24,33,7,0,16,7,12,37,24,25,14,19,36,29,9,25,7,24,36,43,19,43,19,21,18,0,18,24,12,21,18,24,0,0,0,0,0,0,0,0,0,0,0,0,0,0,0,0,0,0,0,0,0,0,0,0,0,0,0,0,0,0,0,0,0,0,0,0,0,0,0,0,0,0,0,0,0,0,0,0,0,0,0,0,0,0,0,0,0,0,0,0,0,0,0,0,0,0,0,0,0,0,0,0,0,0,0,0,0,0,0,0,0,0,0,0,0,0,0,0,0,0,0,0,0,0,0,0,0,0,0,0,0,0,0,0,0,0,0,0,0,0,0],"split_type":[0,0,0,0,0,0,0,0,0,0,0,0,0,0,0,0,0,0,0,0,0,0,0,0,0,0,0,0,0,0,0,0,0,0,0,0,0,0,0,0,0,0,0,0,0,0,0,0,0,0,0,0,0,0,0,0,0,0,0,0,0,0,0,0,0,0,0,0,0,0,0,0,0,0,0,0,0,0,0,0,0,0,0,0,0,0,0,0,0,0,0,0,0,0,0,0,0,0,0,0,0,0,0,0,0,0,0,0,0,0,0,0,0,0,0,0,0,0,0,0,0,0,0,0,0,0,0,0,0,0,0,0,0,0,0,0,0,0,0,0,0,0,0,0,0,0,0,0,0,0,0,0,0,0,0,0,0,0,0,0,0,0,0,0,0,0,0,0,0,0,0,0,0,0,0,0,0,0,0,0,0,0,0,0,0,0,0,0,0,0,0,0,0,0,0,0,0,0,0,0,0,0,0,0,0,0,0,0,0,0,0,0,0,0,0,0,0,0,0,0,0,0,0],"sum_hessian":[3.20217E5,4.6423E4,2.73794E5,2.6407E4,2.0016E4,1.6261E4,2.57533E5,2.2607E4,3.8E3,1.587E4,4.146E3,8.908E3,7.353E3,1.30566E5,1.26967E5,1.6207E4,6.4E3,2.139E3,1.661E3,7.639E3,8.231E3,1.557E3,2.589E3,2.874E3,6.034E3,1.384E3,5.969E3,4.2426E4,8.814E4,1.2646E4,3.561E3,6.22E3,1.8E2,1.379E3,7.6E2,8.43E2,8.18E2,5.751E3,1.888E3,2.712E3,5.519E3,3.89E2,1.168E3,1.943E3,6.46E2,1.134E3,1.74E3,9.18E2,5.116E3,3.58E2,1.026E3,3.293E3,2.676E3,3.2904E4,9.522E3,6.235E3,8.1905E4,4.547E3,8.099E3,1.779E3,1.782E3,5.378E3,8.42E2,1.27E2,5.3E1,4.05E2,9.74E2,1E2,6.6E2,7.85E2,5.8E1,7.16E2,1.02E2,2.422E3,3.329E3,8E0,1.88E3,1.634E3,1.078E3,4.399E3,1.12E3,8.9E1,3E2,1.136E3,3.2E1,1.429E3,5.14E2,7.7E1,5.69E2,2.17E2,9.17E2,1.12E3,6.2E2,2.36E2,6.82E2,2.649E3,2.467E3,3.14E2,4.4E1,6.09E2,4.17E2,2.244E3,1.049E3,1.187E3,1.489E3,1.0092E4,2.2812E4,3.792E3,5.73E3,4.981E3,1.254E3,5.4426E4,2.7479E4,3.86E3,6.87E2,6.372E3,1.727E3,1.659E3,1.2E2,1.3E3,4.82E2,2.126E3,3.252E3,7.96E2,4.6E1,8.8E1,3.9E1,4.6E1,7E0,9.6E1,3.09E2,6.2E1,9.12E2,7.8E1,2.2E1,6.37E2,2.3E1,7.29E2,5.6E1,5.3E1,5E0,5.27E2,1.89E2,6.1E1,4.1E1,1.386E3,1.036E3,8.63E2,2.466E3,1.875E3,5E0,2.39E2,1.395E3,9.27E2,1.51E2,1.87E3,2.529E3,2.31E2,8.89E2,1.4E1,7.5E1,2.59E2,4.1E1,5.01E2,6.35E2,8E0,2.4E1,8.57E2,5.72E2,4.58E2,5.6E1,7E1,7E0,5.7E1,5.12E2,1.61E2,5.6E1,8.09E2,1.08E2,6.44E2,4.76E2,6.12E2,8E0,1.63E2,7.3E1,5.57E2,1.25E2,2.643E3,6E0,2.398E3,6.9E1,2.15E2,9.9E1,2.3E1,2.1E1,3.43E2,2.66E2,3.6E2,5.7E1,9.87E2,1.257E3,1.012E3,3.7E1,6.39E2,5.48E2,5.47E2,9.42E2,4.43E3,5.662E3,6.18E2,2.2194E4,1.822E3,1.97E3,6E0,5.724E3,8.08E2,4.173E3,7E0,1.247E3,3.0574E4,2.3852E4,5.515E3,2.1964E4],"tree_param":{"num_deleted":"0","num_feature":"51","num_nodes":"223","size_leaf_vector":"1"}},{"base_weights":[3.3652997E-3,-4.4497058E-1,7.678059E-2,-5.9760934E-1,-2.2998984E-1,-7.137402E-2,8.686986E-2,-6.4735836E-1,-2.9970846E-1,-2.904193E-1,-1.4113764E-1,-1.2153695E-1,1.722888E-2,6.5533906E-2,9.558285E-2,-7.07052E-1,-5.376664E-1,-4.2230847E-1,-1.7095548E-1,-3.3202285E-1,-1.22217186E-1,-2.3943661E-1,-9.978438E-3,-2.6621386E-1,-5.688831E-2,-7.018111E-2,4.538446E-2,4.7952168E-2,2.9963236E-3,8.14202E-2,9.898897E-2,-7.452343E-1,-5.697331E-1,-5.575013E-1,-2.8934008E-1,-5.931204E-1,-3.7647444E-1,-2.25E-1,-1.0830409E-1,-4.17711E-1,-2.3705451E-1,-2.4799527E-1,-4.38738E-2,-3.627295E-1,-1.6467753E-1,9.28165E-2,-8.843648E-2,-3.329652E-1,-1.9278787E-1,-1.0762439E-1,-9.555885E-3,-1.1964769E-1,-2.4969094E-2,2.0226609E-2,7.0169635E-2,6.429182E-2,-4.637522E-2,5.6105744E-2,8.814902E-2,-9.523809E-2,9.901596E-2,-7.908114E-1,-6.904441E-1,-6.8272954E-1,-5.0235116E-1,-5.7304543E-1,-4.2406207E-1,-4.448E-1,-2.471092E-1,-6.2266284E-1,-3.9272726E-1,-4.6917292E-1,-3.4335107E-1,-2.719449E-1,-1.5759803E-1,-1.6999999E-1,-6.939163E-2,-2.8061315E-1,-4.6001673E-1,-2.8827265E-1,-1.7244136E-1,-2.9761904E-1,-1.5775576E-1,-8.928571E-2,1.2664477E-2,-6.0423726E-1,-3.4370467E-1,-2.1890472E-1,-1.1163982E-1,-3.25E-1,9.634409E-2,-7.008645E-2,-3.824074E-1,-3.690779E-1,-2.50361E-1,-2.2252649E-1,-1.2755299E-1,-1.3470563E-1,-5.732824E-2,-3.7404962E-2,1.7436152E-2,-2.4038461E-1,-8.71355E-2,-9.3373485E-2,-7.298133E-3,2.1576067E-2,-2.7272725E-1,-8.68421E-2,7.264706E-2,-1.5186025E-2,7.251651E-2,9.790375E-2,-1.7131168E-1,2.8945483E-2,7.232583E-2,8.254986E-2,9.516531E-2,3.1250004E-2,-1.2499999E-2,9.445292E-2,9.97175E-2,-2.4952058E-2,-2.2972422E-2,-2.1286096E-2,-1.856352E-2,-2.411594E-2,-1.9694189E-2,-1.6118605E-2,-1.314507E-2,-1.8738901E-2,-1.6468043E-2,-1.4035889E-2,-7.639751E-3,2.6666666E-3,-1.4461537E-2,-9.787128E-3,-5.5827065E-3,-1.8945085E-2,-4.8749996E-3,2.500001E-4,-1.4795453E-2,-1.2301157E-2,-1.7234042E-2,-4.892857E-3,-1.0725358E-2,-6.5804017E-3,-1.1527173E-2,-7.071428E-3,-2.8281936E-3,-4.1277367E-3,-9.684211E-3,-1.5403725E-3,-7.977272E-3,-1.3247409E-2,2.6360946E-3,-1.5567856E-2,-1.1660307E-2,-1.011977E-2,-7.0725516E-3,-3.9725835E-3,-9.3516745E-3,-1.6706895E-2,-7.98773E-3,-4.0251794E-3,-1.2115384E-2,-4.04692E-3,-1.5504806E-3,6.3589757E-4,-5.875E-3,-2.0292133E-2,-1.1099999E-2,-1.1786747E-2,-8.515988E-3,-8.534059E-3,-5.813857E-3,-9.159573E-3,-2.9175174E-3,-1.7499998E-2,-1.7142856E-3,2.9761042E-3,-5.2E-3,-4.0416666E-3,-9.457719E-4,-1.4275861E-2,1.3636374E-4,-1.33129405E-2,-9.917266E-3,-8.65229E-3,-5.168478E-3,-6.8664844E-3,9.37501E-5,-5.48913E-3,-1.9303276E-3,8.720931E-4,-4.21971E-3,-1.6336404E-3,-1.3999999E-2,-2.6491522E-3,-4.7037558E-4,-3.3296325E-4,1.2015846E-3,3.1578957E-4,-1.1429999E-2,-4.9193543E-3,-1.5301505E-3,-2.0516126E-3,-1.225E-2,-3.8225804E-3,1.6466563E-4,-1.4721474E-4,1.0166668E-3,-2.4999997E-3,-1.2499999E-2,-1.2499999E-2,-7.272726E-4,-5.9999996E-3,2.2026116E-3,-3.920749E-3,2.8268888E-4,1.1389832E-3,2.4487223E-3,-3.1578934E-4,2.954586E-3,-1.3719011E-2,2.998506E-3,-2.1352938E-3,1.0630012E-3,4.637003E-4,2.3411182E-3,2.1651438E-3,2.7604268E-3,8.372094E-4,2.8617322E-3,-2.4999997E-3,2.7272727E-3,2.7596103E-3,2.985532E-3,2.9353427E-3,2.9976305E-3],"categories":[],"categories_nodes":[],"categories_segments":[],"categories_sizes":[],"default_left":[0,0,0,0,0,0,0,0,0,0,0,0,0,0,0,0,0,0,0,0,0,0,0,0,0,0,0,0,0,0,0,0,0,0,0,0,0,0,0,0,0,0,0,0,0,0,0,0,0,0,0,0,0,0,0,0,0,0,0,0,0,0,0,0,0,0,0,0,0,0,0,0,0,0,0,0,0,0,0,0,0,0,0,0,0,0,0,0,0,0,0,0,0,0,0,0,0,0,0,0,0,0,0,0,0,0,0,0,0,0,0,0,0,0,0,0,0,0,0,0,0,0,0,0,0,0,0,0,0,0,0,0,0,0,0,0,0,0,0,0,0,0,0,0,0,0,0,0,0,0,0,0,0,0,0,0,0,0,0,0,0,0,0,0,0,0,0,0,0,0,0,0,0,0,0,0,0,0,0,0,0,0,0,0,0,0,0,0,0,0,0,0,0,0,0,0,0,0,0,0,0,0,0,0,0,0,0,0,0,0,0,0,0,0,0,0,0,0,0,0,0,0,0,0,0,0,0,0,0,0,0,0,0,0,0,0,0,0,0],"id":2,"left_children":[1,3,5,7,9,11,13,15,17,19,21,23,25,27,29,31,33,35,37,39,41,43,45,47,49,51,53,55,-1,57,59,61,63,65,67,69,71,73,75,77,79,81,83,85,87,89,91,93,95,97,99,101,103,105,107,109,111,113,115,117,119,121,123,125,127,129,131,133,135,137,139,141,143,145,147,149,151,153,155,157,159,161,163,165,167,169,171,173,175,177,179,181,183,185,187,189,191,193,195,197,199,201,203,205,207,209,211,213,215,217,219,221,223,225,227,229,231,233,-1,235,237,-1,-1,-1,-1,-1,-1,-1,-1,-1,-1,-1,-1,-1,-1,-1,-1,-1,-1,-1,-1,-1,-1,-1,-1,-1,-1,-1,-1,-1,-1,-1,-1,-1,-1,-1,-1,-1,-1,-1,-1,-1,-1,-1,-1,-1,-1,-1,-1,-1,-1,-1,-1,-1,-1,-1,-1,-1,-1,-1,-1,-1,-1,-1,-1,-1,-1,-1,-1,-1,-1,-1,-1,-1,-1,-1,-1,-1,-1,-1,-1,-1,-1,-1,-1,-1,-1,-1,-1,-1,-1,-1,-1,-1,-1,-1,-1,-1,-1,-1,-1,-1,-1,-1,-1,-1,-1,-1,-1,-1,-1,-1,-1,-1,-1,-1,-1,-1,-1],"loss_changes":[1.0541595E4,1.4786426E3,4.1137512E2,3.9036426E2,1.0043451E2,7.7991165E1,4.7892456E1,1.4747852E2,5.9485046E1,7.789392E1,9.768646E1,1.0477771E2,1.5616267E1,4.510898E1,8.817261E0,7.622998E1,3.905591E1,1.4902344E1,6.212574E0,7.2554016E1,2.1766197E1,3.986023E1,2.6195553E1,1.6894241E1,1.859829E1,3.454617E0,2.9909573E0,7.6169815E1,0E0,6.037567E0,7.824707E-1,2.8011719E1,2.3907349E1,1.5047852E1,3.7701263E0,2.1649475E0,4.524475E0,3.0833511E0,2.0408354E0,2.7084595E1,1.3972061E1,3.750412E0,3.5006483E0,7.2999725E0,7.7352448E0,2.1035929E0,9.9096365E0,5.3099213E0,3.1726074E0,5.083744E0,3.0134792E0,2.8760147E0,9.772146E-1,9.479538E-1,9.464865E-1,2.7535416E1,1.3155034E2,3.2808247E0,1.0930176E0,8.6681545E-1,4.6264648E-1,5.7595215E0,6.676758E0,3.2476807E0,4.246887E0,7.8657227E0,5.6165314E0,2.5279236E0,2.1941204E0,1.333313E0,2.2199707E0,2.2488403E0,2.8210144E0,3.3473816E0,1.9960337E0,1.5898399E0,1.8517163E0,6.581765E1,1.4861023E1,6.005707E0,1.0416096E1,4.2914124E0,1.704298E0,1.289671E0,1.0857377E0,1.7444267E0,4.3533936E0,2.1393585E0,3.7772083E0,7.970238E-1,1.0928965E0,4.3200693E0,3.9077158E0,3.4708252E0,1.5961227E0,1.624363E0,1.8062334E0,2.371601E0,1.5154862E0,2.1804464E0,1.3144076E0,5.5079927E0,1.6102624E0,1.2784474E0,9.8987585E-1,7.7396214E-1,2.651515E-1,7.7448165E-1,5.1649666E-1,1.1231854E1,1.2008514E1,2.1494293E-1,3.0345264E2,1.8135519E0,1.5140095E0,1.5249863E0,1.8608856E-1,1.1695075E-1,0E0,2.3648071E-1,3.894043E-2,0E0,0E0,0E0,0E0,0E0,0E0,0E0,0E0,0E0,0E0,0E0,0E0,0E0,0E0,0E0,0E0,0E0,0E0,0E0,0E0,0E0,0E0,0E0,0E0,0E0,0E0,0E0,0E0,0E0,0E0,0E0,0E0,0E0,0E0,0E0,0E0,0E0,0E0,0E0,0E0,0E0,0E0,0E0,0E0,0E0,0E0,0E0,0E0,0E0,0E0,0E0,0E0,0E0,0E0,0E0,0E0,0E0,0E0,0E0,0E0,0E0,0E0,0E0,0E0,0E0,0E0,0E0,0E0,0E0,0E0,0E0,0E0,0E0,0E0,0E0,0E0,0E0,0E0,0E0,0E0,0E0,0E0,0E0,0E0,0E0,0E0,0E0,0E0,0E0,0E0,0E0,0E0,0E0,0E0,0E0,0E0,0E0,0E0,0E0,0E0,0E0,0E0,0E0,0E0,0E0,0E0,0E0,0E0,0E0,0E0,0E0,0E0,0E0,0E0,0E0,0E0,0E0,0E0],"parents":[2147483647,0,0,1,1,2,2,3,3,4,4,5,5,6,6,7,7,8,8,9,9,10,10,11,11,12,12,13,13,14,14,15,15,16,16,17,17,18,18,19,19,20,20,21,21,22,22,23,23,24,24,25,25,26,26,27,27,29,29,30,30,31,31,32,32,33,33,34,34,35,35,36,36,37,37,38,38,39,39,40,40,41,41,42,42,43,43,44,44,45,45,46,46,47,47,48,48,49,49,50,50,51,51,52,52,53,53,54,54,55,55,56,56,57,57,58,58,59,59,60,60,61,61,62,62,63,63,64,64,65,65,66,66,67,67,68,68,69,69,70,70,71,71,72,72,73,73,74,74,75,75,76,76,77,77,78,78,79,79,80,80,81,81,82,82,83,83,84,84,85,85,86,86,87,87,88,88,89,89,90,90,91,91,92,92,93,93,94,94,95,95,96,96,97,97,98,98,99,99,100,100,101,101,102,102,103,103,104,104,105,105,106,106,107,107,108,108,109,109,110,110,111,111,112,112,113,113,114,114,115,115,116,116,117,117,119,119,120,120],"right_children":[2,4,6,8,10,12,14,16,18,20,22,24,26,28,30,32,34,36,38,40,42,44,46,48,50,52,54,56,-1,58,60,62,64,66,68,70,72,74,76,78,80,82,84,86,88,90,92,94,96,98,100,102,104,106,108,110,112,114,116,118,120,122,124,126,128,130,132,134,136,138,140,142,144,146,148,150,152,154,156,158,160,162,164,166,168,170,172,174,176,178,180,182,184,186,188,190,192,194,196,198,200,202,204,206,208,210,212,214,216,218,220,222,224,226,228,230,232,234,-1,236,238,-1,-1,-1,-1,-1,-1,-1,-1,-1,-1,-1,-1,-1,-1,-1,-1,-1,-1,-1,-1,-1,-1,-1,-1,-1,-1,-1,-1,-1,-1,-1,-1,-1,-1,-1,-1,-1,-1,-1,-1,-1,-1,-1,-1,-1,-1,-1,-1,-1,-1,-1,-1,-1,-1,-1,-1,-1,-1,-1,-1,-1,-1,-1,-1,-1,-1,-1,-1,-1,-1,-1,-1,-1,-1,-1,-1,-1,-1,-1,-1,-1,-1,-1,-1,-1,-1,-1,-1,-1,-1,-1,-1,-1,-1,-1,-1,-1,-1,-1,-1,-1,-1,-1,-1,-1,-1,-1,-1,-1,-1,-1,-1,-1,-1,-1,-1,-1,-1],"split_conditions":[2.1281317E1,1.8700798E1,2.493405E1,1E0,-1.15154035E-1,-7.0710677E-1,0E0,5.813679E-1,4.982593E-1,1.2246469E-16,-2.5881904E-1,6.8898165E-1,5.5547017E-1,3.7339233E1,3.0953323E1,9.659258E-1,9.659258E-1,3.8701713E-1,5.749451E-1,6.284236E-1,4.9029514E-1,6.6239965E-1,2.927348E-1,6.226073E-1,8.2343405E-1,3.8603392E-1,7.180532E-1,3.3988823E1,7.249758E-3,7.7501714E-1,3.8701713E-1,4.9029514E-1,4.3276078E-1,1.2659693E0,4.9029514E-1,1.3260587E0,1.688329E1,3.7992066E-1,5.1378834E-1,2.5891113E-1,7.289556E-1,4.8182404E-1,5.876315E-1,6.04157E-1,7.6619095E-1,-7.818315E-1,1.0090162E0,7.478922E-1,8.1077176E-1,2.3527857E1,8.946947E-1,5.7381075E-2,2.203414E0,1.9342161E0,4.3276078E-1,6.5124255E-1,-2.5881904E-1,8.660254E-1,8.660254E-1,9.851906E-1,3.447943E1,3.5104492E-1,8.660254E-1,1.052821E0,5.1378834E-1,6.168911E-1,1.4520484E0,5.281296E-1,6.226073E-1,1.3716327E0,1.0578672E0,4.343136E-1,1.4882223E-1,2.1483104E0,4.8182404E-1,5.6868315E-1,1.5563802E0,-2.5881904E-1,6.225888E-1,2.0168224E1,-2.5881904E-1,3.6070415E-1,-1.6685486E-1,1.0915935E0,9.0658945E-1,5.9357435E-1,6.0536313E-1,1.9870264E1,6.0532355E-1,1.0884566E0,0E0,5.338947E-1,1.4270655E0,5.4221857E-1,2.3236132E1,1.3427054E0,2.2868767E1,5.9357435E-1,1.4668263E0,2.2352392E1,9.3181914E-1,6.7841876E-1,2.2392541E-1,2.181412E0,4.447568E-1,5.51089E-1,5.813679E-1,6.5124255E-1,1.3566015E0,-5E-1,-5E-1,7.3389584E-1,0E0,2.692969E1,5.9359896E-1,9.8109204E-1,6.8702865E-1,3.6070415E-1,-8.094969E-4,5E-1,9.7692806E-1,-4.793561E-3,-4.27669E-3,-3.9123646E-3,-3.3953513E-3,-4.206147E-3,-3.7672871E-3,-2.932527E-3,-2.7623337E-3,-3.442115E-3,-3.12642E-3,-2.9037925E-3,-1.964527E-3,1.19344E-4,-2.606134E-3,-2.4021512E-3,-1.4675728E-3,-3.0223557E-3,-3.536624E-3,-1.3542901E-4,-4.17781E-3,-2.5982005E-3,-2.7111736E-3,-1.2621933E-3,-2.2159882E-3,-1.6799554E-3,-2.1790538E-3,-1.8238636E-3,-1.235355E-3,-1.3391874E-3,-2.2685465E-3,-7.0564676E-4,-1.5685122E-3,-2.7092309E-3,2.5561047E-3,-3.0904536E-3,-2.337461E-3,-2.30135E-3,-1.71964E-3,-1.1271688E-3,-2.1366617E-3,-2.6875022E-3,-1.6897958E-3,-9.97917E-4,-1.9224843E-3,-9.421918E-4,-4.715216E-4,3.2733008E-4,-1.4361738E-3,-2.9057786E-3,-1.842969E-3,-2.3926252E-3,-1.8752391E-3,-1.9973107E-3,-1.4288211E-3,-1.387637E-3,-7.847768E-4,-2.9612829E-3,-1.470345E-3,3.6108554E-3,-1.5971812E-3,-1.170871E-3,-3.0179747E-4,-3.133484E-3,-1.302642E-3,-2.5266078E-3,-2.022428E-3,-1.866002E-3,-1.3291962E-3,-1.6023952E-3,-4.236375E-4,-1.4054123E-3,-5.837767E-4,1.4186955E-4,-1.1132581E-3,-7.0055795E-4,-2.1031522E-3,-7.071751E-4,-1.03972074E-4,-1.1043796E-4,5.7655835E-4,-5.8411064E-5,-2.387494E-3,-1.583177E-3,-5.007699E-4,-6.4879685E-4,-1.2813533E-3,-1.0399382E-3,2.6441037E-5,-6.3231455E-5,4.710674E-4,-7.7364297E-4,-8.956611E-5,-2.5794955E-3,-6.2966516E-4,-7.6991826E-4,1.30708E-3,-1.1217955E-3,7.838023E-5,5.6662963E-4,1.8108597E-3,-4.083341E-5,4.394388E-3,-2.8006665E-3,5.4575256E-3,-4.135653E-4,4.7654466E-4,4.013596E-4,1.6761346E-3,1.4393723E-3,2.495104E-3,1.0901402E-3,3.0632182E-3,-5.316272E-4,1.9857467E-3,2.523377E-3,4.828665E-3,4.161813E-3,6.6756974E-3],"split_indices":[0,0,0,45,44,45,47,3,3,45,45,3,3,0,0,45,45,3,3,3,3,3,31,3,3,20,21,0,0,3,3,3,3,38,4,12,0,27,4,31,3,6,3,18,3,47,38,4,4,0,4,19,37,13,4,3,45,45,45,11,0,41,45,34,3,4,38,12,3,9,11,31,27,33,5,5,13,45,4,0,45,3,44,26,17,5,3,0,4,7,45,38,4,3,0,10,0,9,7,0,3,13,27,37,3,38,5,3,33,45,45,4,45,0,3,3,18,3,0,45,3,0,0,0,0,0,0,0,0,0,0,0,0,0,0,0,0,0,0,0,0,0,0,0,0,0,0,0,0,0,0,0,0,0,0,0,0,0,0,0,0,0,0,0,0,0,0,0,0,0,0,0,0,0,0,0,0,0,0,0,0,0,0,0,0,0,0,0,0,0,0,0,0,0,0,0,0,0,0,0,0,0,0,0,0,0,0,0,0,0,0,0,0,0,0,0,0,0,0,0,0,0,0,0,0,0,0,0,0,0,0,0,0,0,0,0,0,0,0],"split_type":[0,0,0,0,0,0,0,0,0,0,0,0,0,0,0,0,0,0,0,0,0,0,0,0,0,0,0,0,0,0,0,0,0,0,0,0,0,0,0,0,0,0,0,0,0,0,0,0,0,0,0,0,0,0,0,0,0,0,0,0,0,0,0,0,0,0,0,0,0,0,0,0,0,0,0,0,0,0,0,0,0,0,0,0,0,0,0,0,0,0,0,0,0,0,0,0,0,0,0,0,0,0,0,0,0,0,0,0,0,0,0,0,0,0,0,0,0,0,0,0,0,0,0,0,0,0,0,0,0,0,0,0,0,0,0,0,0,0,0,0,0,0,0,0,0,0,0,0,0,0,0,0,0,0,0,0,0,0,0,0,0,0,0,0,0,0,0,0,0,0,0,0,0,0,0,0,0,0,0,0,0,0,0,0,0,0,0,0,0,0,0,0,0,0,0,0,0,0,0,0,0,0,0,0,0,0,0,0,0,0,0,0,0,0,0,0,0,0,0,0,0,0,0,0,0,0,0,0,0,0,0,0,0,0,0,0,0,0,0],"sum_hessian":[3.20268E5,4.5064E4,2.75204E5,2.6352E4,1.8712E4,1.7546E4,2.57658E5,2.258E4,3.772E3,1.1136E4,7.576E3,1.1203E4,6.343E3,7.4713E4,1.82945E5,1.4619E4,7.961E3,1.931E3,1.841E3,8.927E3,2.209E3,4.33E3,3.246E3,3.459E3,7.744E3,1.545E3,4.798E3,4.9417E4,2.5296E4,3.5473E4,1.47472E5,1.1435E4,3.184E3,7.371E3,5.9E2,4.06E2,1.525E3,9.87E2,8.54E2,4.691E3,4.236E3,8.47E2,1.362E3,1.633E3,2.697E3,1.405E3,1.841E3,1.81E3,1.649E3,3.737E3,4.007E3,7.37E2,8.08E2,2.382E3,2.416E3,4.2121E4,7.296E3,7.451E3,2.8022E4,2E1,1.47452E5,6.235E3,5.2E3,1.186E3,1.998E3,6.599E3,7.72E2,1.24E2,4.66E2,3.52E2,5.4E1,3.98E2,1.127E3,5.8E2,4.07E2,3.29E2,5.25E2,1.108E3,3.583E3,2.361E3,1.875E3,5.45E2,3.02E2,7.55E2,6.07E2,1.17E2,1.516E3,1.332E3,1.365E3,1.1E1,1.394E3,1.734E3,1.07E2,1.257E3,5.53E2,1.131E3,5.18E2,2.428E3,1.309E3,1.972E3,2.035E3,1.55E2,5.82E2,1.65E2,6.43E2,2.372E3,1E1,3.7E1,2.379E3,3.95E3,3.8171E4,3.386E3,3.91E3,2.787E3,4.664E3,1.5592E4,1.243E4,1.5E1,5E0,1.9667E4,1.27785E5,2.356E3,3.879E3,4.099E3,1.101E3,2.06E2,9.8E2,1.289E3,7.09E2,2.094E3,4.505E3,6.12E2,1.6E2,8E0,1.16E2,2.01E2,2.65E2,3.45E2,7E0,1.1E1,4.3E1,2.58E2,1.4E2,8.3E1,1.044E3,3.97E2,1.83E2,1.81E2,2.26E2,2.73E2,5.6E1,4.82E2,4.3E1,7.71E2,3.37E2,1.959E3,1.624E3,1.218E3,1.143E3,1.458E3,4.17E2,5.7E1,4.88E2,2.77E2,2.5E1,3.4E2,4.15E2,5.84E2,2.3E1,8.8E1,2.9E1,8.29E2,6.87E2,3.66E2,9.66E2,9.3E1,1.272E3,5E0,6E0,1.38E3,1.4E1,6.47E2,1.087E3,8.6E1,2.1E1,4.24E2,8.33E2,3.7E2,1.83E2,1.1E3,3.1E1,2.75E2,2.43E2,8.5E1,2.343E3,1.301E3,8E0,5.89E2,1.383E3,9E2,1.135E3,5.6E1,9.9E1,1.85E2,3.97E2,1.54E2,1.1E1,6.1E1,5.82E2,7.53E2,1.619E3,5E0,5E0,5E0,3.2E1,6E0,2.373E3,6.93E2,3.257E3,7.964E3,3.0207E4,1.8E1,3.368E3,1.903E3,2.007E3,1.69E2,2.618E3,4.26E2,4.238E3,7.441E3,8.151E3,4.2E1,1.2388E4,5E0,1E1,1.324E4,6.427E3,1.2573E4,1.15212E5],"tree_param":{"num_deleted":"0","num_feature":"51","num_nodes":"239","size_leaf_vector":"1"}},{"base_weights":[4.547078E-3,-4.339628E-1,7.6651126E-2,-5.83961E-1,-2.2313221E-1,-6.9533266E-2,8.6547814E-2,-2.9293033E-1,-6.3295996E-1,-2.8317815E-1,-1.3285352E-1,-6.2391455E-3,-1.4062652E-1,6.520251E-2,9.52456E-2,-4.7545955E-1,-2.1975717E-1,-7.034055E-1,-5.362214E-1,-1.1604444E-1,-3.248006E-1,-1.831878E-1,4.4016838E-2,-6.01158E-2,1.8946031E-2,-3.158863E-1,-9.156137E-2,7.819523E-2,-9.0402365E-2,8.062116E-2,9.8783195E-2,-6.168269E-1,-4.415437E-1,-2.7053165E-1,-1.2513143E-1,-5.680347E-1,-7.436203E-1,-3.1708482E-1,-5.5727607E-1,-2.3612384E-1,-4.0029E-2,-3.948096E-1,-2.2615999E-1,-5.522482E-2,-2.3054187E-1,-3.392857E-1,9.516349E-2,-4.0621527E-2,-2.8504273E-1,4.7223628E-2,-2.9353444E-2,-4.1066664E-1,-2.7645668E-1,-1.3964143E-1,-3.322981E-2,8.7020295E-3,8.6708136E-2,6.36432E-2,-4.41462E-1,5.6694817E-2,8.6959615E-2,9.970921E-2,9.275185E-2,-6.518919E-1,-3.2083333E-1,-4.593827E-1,-2.3472221E-1,-4.4299063E-1,-2.5926593E-1,-1.5414438E-1,-1.813725E-2,-6.7831206E-1,-5.109651E-1,-7.9498595E-1,-6.998347E-1,-3.821285E-1,-2.2088234E-1,-6.0726243E-1,-5.0536674E-1,-3.121588E-1,-1.7042552E-1,-7.208067E-2,2.8995438E-2,-4.4302484E-1,-2.8534323E-1,-2.8621334E-1,-1.8123835E-1,-1.3591771E-1,-1.3713043E-3,-3.4562618E-1,-1.6209345E-1,-2.6126125E-1,-4.360465E-1,9.856263E-2,-1.6125E-2,-1.0998735E-1,-1.1918449E-2,-1.6749999E-1,-4.0521738E-1,2.3866018E-2,6.0434785E-2,-9.618736E-2,1.4397723E-2,-6.213333E-1,-3.7472284E-1,-3.0353728E-1,-1.4933333E-1,-1.9E-1,-1.02518514E-1,-8.5115604E-2,-1.6946077E-2,-6.726013E-2,2.0526644E-2,6.859113E-2,9.764105E-2,8.519466E-2,-9.6828744E-2,-5.7742304E-1,-3.046857E-1,7.41018E-2,2.7458725E-2,9.429283E-2,8.113292E-2,9.769191E-2,2.9961613E-3,8.6127095E-2,9.69811E-2,-2.0785714E-2,-1.3031249E-2,-5.0526313E-3,-2.2499999E-2,-1.1300675E-2,-1.5180582E-2,-4.690909E-3,-1.3833333E-2,-1.5096773E-2,-1.1999998E-3,-7.178818E-3,-9.924999E-3,-5.8954246E-3,-2.5965516E-3,-9.230758E-5,-9.3E-3,-2.1995293E-2,-1.9139495E-2,-1.6884385E-2,-1.4171778E-2,-2.4995472E-2,-2.2976885E-2,-2.0084115E-2,-2.1859143E-2,-1.5177632E-2,-9.804035E-3,-1.2041667E-2,-5.152416E-3,-1.49694765E-2,-1.8811679E-2,-1.5707592E-2,-1.0466518E-2,-1.1621739E-2,-6.327586E-3,-6.8678567E-3,-2.5130888E-3,-3.0417955E-3,-2.4242411E-4,-1.0285714E-2,1.0486111E-3,-1.18494155E-2,-1.6664533E-2,-1.2310436E-2,-8.450692E-5,-7.3734936E-3,-1.1062857E-2,-5.135083E-3,-1.7055554E-2,-8.523364E-3,-3.165399E-3,-1.3385825E-3,8.292254E-4,-1.4122743E-2,-9.568925E-3,-6.341799E-3,-3.2889058E-3,-1.4918919E-2,-4.2399997E-3,-2.321739E-2,-9.234374E-3,2.977131E-3,1.2631579E-3,-1.1657142E-2,-2.9088506E-3,-2.7346937E-3,-1.5959241E-4,-4.1315784E-3,-1.8857142E-2,-1.5108433E-2,-4.363636E-3,8.6728844E-4,-4.5749997E-3,1.8845847E-3,-4.8888884E-3,-3.450413E-3,-7.461139E-4,6.994829E-5,2.1341462E-3,-2.3892857E-2,-1.5187498E-2,-9.955357E-3,-1.4870688E-2,-5.9999996E-3,-9.77093E-3,9.5238196E-5,-6.2208585E-3,-8.151898E-3,-5.232057E-3,-8.839285E-3,-2.910152E-3,-3.0240768E-3,1.6714286E-3,-2.6999998E-3,-1.7674649E-4,-3.0044774E-3,-7.8947254E-5,-7.571454E-5,1.6435683E-3,1.5724393E-3,2.4133965E-3,-1.2499999E-2,2.9315788E-3,-6.666665E-4,2.6483485E-3,-1.4347825E-2,2.9904153E-3,-1.998784E-2,-1.5693989E-2,-1.2418918E-2,-8.013761E-3,-8.2835805E-4,2.3125687E-3,-2.0496894E-3,9.996193E-4,2.6186586E-3,2.9121311E-3,2.1018519E-3,2.733956E-3,2.9635245E-3,2.713948E-3,-9.6774177E-4,2.597926E-3,-1.1249998E-3,2.9118904E-3],"categories":[],"categories_nodes":[],"categories_segments":[],"categories_sizes":[],"default_left":[0,0,0,0,0,0,0,0,0,0,0,0,0,0,0,0,0,0,0,0,0,0,0,0,0,0,0,0,0,0,0,0,0,0,0,0,0,0,0,0,0,0,0,0,0,0,0,0,0,0,0,0,0,0,0,0,0,0,0,0,0,0,0,0,0,0,0,0,0,0,0,0,0,0,0,0,0,0,0,0,0,0,0,0,0,0,0,0,0,0,0,0,0,0,0,0,0,0,0,0,0,0,0,0,0,0,0,0,0,0,0,0,0,0,0,0,0,0,0,0,0,0,0,0,0,0,0,0,0,0,0,0,0,0,0,0,0,0,0,0,0,0,0,0,0,0,0,0,0,0,0,0,0,0,0,0,0,0,0,0,0,0,0,0,0,0,0,0,0,0,0,0,0,0,0,0,0,0,0,0,0,0,0,0,0,0,0,0,0,0,0,0,0,0,0,0,0,0,0,0,0,0,0,0,0,0,0,0,0,0,0,0,0,0,0,0,0,0,0,0,0,0,0,0,0,0,0,0,0,0,0,0,0,0,0,0,0,0,0,0,0,0,0,0,0,0,0,0,0,0,0],"id":3,"left_children":[1,3,5,7,9,11,13,15,17,19,21,23,25,27,29,31,33,35,37,39,41,43,45,47,49,51,53,55,57,59,61,63,65,67,69,71,73,75,77,79,81,83,85,87,89,91,93,95,97,99,101,103,105,107,109,111,113,115,117,119,121,123,125,127,129,131,133,135,137,139,141,143,145,147,149,151,153,155,157,159,161,163,165,167,169,171,173,175,177,179,181,183,185,187,-1,189,191,193,195,197,199,201,203,205,207,209,211,213,215,217,219,221,223,225,227,229,231,233,235,237,239,241,243,245,-1,247,249,-1,-1,-1,-1,-1,-1,-1,-1,-1,-1,-1,-1,-1,-1,-1,-1,-1,-1,-1,-1,-1,-1,-1,-1,-1,-1,-1,-1,-1,-1,-1,-1,-1,-1,-1,-1,-1,-1,-1,-1,-1,-1,-1,-1,-1,-1,-1,-1,-1,-1,-1,-1,-1,-1,-1,-1,-1,-1,-1,-1,-1,-1,-1,-1,-1,-1,-1,-1,-1,-1,-1,-1,-1,-1,-1,-1,-1,-1,-1,-1,-1,-1,-1,-1,-1,-1,-1,-1,-1,-1,-1,-1,-1,-1,-1,-1,-1,-1,-1,-1,-1,-1,-1,-1,-1,-1,-1,-1,-1,-1,-1,-1,-1,-1,-1,-1,-1,-1,-1,-1,-1,-1,-1,-1],"loss_changes":[1.011398E4,1.428335E3,3.9743604E2,3.7616992E2,1.01760864E2,7.838087E1,4.776123E1,5.0716003E1,1.5355566E2,7.841101E1,6.6804596E1,1.2506265E1,7.051848E1,1.5060779E2,9.449219E0,4.944153E0,1.3024994E1,7.071289E1,4.3756348E1,2.0528301E1,6.2255615E1,3.5381195E1,3.2634804E1,1.2862154E1,8.579931E0,6.590912E0,1.7975552E1,4.06716E1,3.1049667E2,5.3956757E0,8.128662E-1,1.9496841E0,3.1426392E0,3.3201447E0,2.949315E0,1.8515015E1,2.2094727E1,5.153E0,2.2231201E1,4.3027573E0,3.0529187E0,2.773584E1,1.0064468E1,6.8615093E0,3.3525055E1,1.3658218E0,3.2099295E0,5.380397E0,3.2375298E0,1.2211571E0,6.7852087E0,3.7425613E0,4.3267365E0,6.5497894E0,2.4470618E0,6.741648E0,1.2124786E1,1.3810743E1,3.238611E1,3.794958E0,1.1952057E0,3.2226562E-2,5.409241E-1,1.3475113E0,1.4435306E0,2.9331818E0,1.2051439E0,2.5772133E0,2.296402E0,2.1251774E0,8.957383E-1,1.7869263E0,3.6918945E0,4.503174E0,4.274414E0,3.2455292E0,2.9465942E0,9.160278E0,1.1982788E1,2.9877357E0,2.3635511E0,1.7663698E0,9.824161E-1,1.957196E1,5.7106613E1,5.259308E0,8.278786E0,2.817665E0,1.1907088E0,5.151169E0,6.8955307E0,3.071827E0,3.487814E0,5.150318E-2,0E0,2.8326597E0,9.9976146E-1,1.5611572E0,2.8661346E0,1.2790897E0,1.3580637E0,1.2296839E0,9.603801E-1,1.1081028E0,2.174736E0,2.3348389E0,1.9918699E0,1.8521118E0,2.116434E0,1.5343776E0,1.7817912E0,2.148694E0,5.128352E0,4.417061E0,1.5777588E0,1.1675701E0,3.5501358E1,3.881256E0,3.4808807E0,1.421278E0,1.5665162E0,2.3394775E-1,1.7309418E0,6.664276E-2,0E0,4.2873E-1,1.3535309E-1,0E0,0E0,0E0,0E0,0E0,0E0,0E0,0E0,0E0,0E0,0E0,0E0,0E0,0E0,0E0,0E0,0E0,0E0,0E0,0E0,0E0,0E0,0E0,0E0,0E0,0E0,0E0,0E0,0E0,0E0,0E0,0E0,0E0,0E0,0E0,0E0,0E0,0E0,0E0,0E0,0E0,0E0,0E0,0E0,0E0,0E0,0E0,0E0,0E0,0E0,0E0,0E0,0E0,0E0,0E0,0E0,0E0,0E0,0E0,0E0,0E0,0E0,0E0,0E0,0E0,0E0,0E0,0E0,0E0,0E0,0E0,0E0,0E0,0E0,0E0,0E0,0E0,0E0,0E0,0E0,0E0,0E0,0E0,0E0,0E0,0E0,0E0,0E0,0E0,0E0,0E0,0E0,0E0,0E0,0E0,0E0,0E0,0E0,0E0,0E0,0E0,0E0,0E0,0E0,0E0,0E0,0E0,0E0,0E0,0E0,0E0,0E0,0E0,0E0,0E0,0E0,0E0,0E0,0E0,0E0,0E0,0E0,0E0,0E0],"parents":[2147483647,0,0,1,1,2,2,3,3,4,4,5,5,6,6,7,7,8,8,9,9,10,10,11,11,12,12,13,13,14,14,15,15,16,16,17,17,18,18,19,19,20,20,21,21,22,22,23,23,24,24,25,25,26,26,27,27,28,28,29,29,30,30,31,31,32,32,33,33,34,34,35,35,36,36,37,37,38,38,39,39,40,40,41,41,42,42,43,43,44,44,45,45,46,46,47,47,48,48,49,49,50,50,51,51,52,52,53,53,54,54,55,55,56,56,57,57,58,58,59,59,60,60,61,61,62,62,63,63,64,64,65,65,66,66,67,67,68,68,69,69,70,70,71,71,72,72,73,73,74,74,75,75,76,76,77,77,78,78,79,79,80,80,81,81,82,82,83,83,84,84,85,85,86,86,87,87,88,88,89,89,90,90,91,91,92,92,93,93,95,95,96,96,97,97,98,98,99,99,100,100,101,101,102,102,103,103,104,104,105,105,106,106,107,107,108,108,109,109,110,110,111,111,112,112,113,113,114,114,115,115,116,116,117,117,118,118,119,119,120,120,121,121,122,122,123,123,125,125,126,126],"right_children":[2,4,6,8,10,12,14,16,18,20,22,24,26,28,30,32,34,36,38,40,42,44,46,48,50,52,54,56,58,60,62,64,66,68,70,72,74,76,78,80,82,84,86,88,90,92,94,96,98,100,102,104,106,108,110,112,114,116,118,120,122,124,126,128,130,132,134,136,138,140,142,144,146,148,150,152,154,156,158,160,162,164,166,168,170,172,174,176,178,180,182,184,186,188,-1,190,192,194,196,198,200,202,204,206,208,210,212,214,216,218,220,222,224,226,228,230,232,234,236,238,240,242,244,246,-1,248,250,-1,-1,-1,-1,-1,-1,-1,-1,-1,-1,-1,-1,-1,-1,-1,-1,-1,-1,-1,-1,-1,-1,-1,-1,-1,-1,-1,-1,-1,-1,-1,-1,-1,-1,-1,-1,-1,-1,-1,-1,-1,-1,-1,-1,-1,-1,-1,-1,-1,-1,-1,-1,-1,-1,-1,-1,-1,-1,-1,-1,-1,-1,-1,-1,-1,-1,-1,-1,-1,-1,-1,-1,-1,-1,-1,-1,-1,-1,-1,-1,-1,-1,-1,-1,-1,-1,-1,-1,-1,-1,-1,-1,-1,-1,-1,-1,-1,-1,-1,-1,-1,-1,-1,-1,-1,-1,-1,-1,-1,-1,-1,-1,-1,-1,-1,-1,-1,-1,-1,-1,-1,-1,-1,-1],"split_conditions":[2.1281317E1,1.8700798E1,2.493405E1,2.5881904E-1,-1.110875E-1,-1.8369701E-16,0E0,4.447568E-1,5.5547017E-1,-1.8369701E-16,9.659258E-1,6.168911E-1,6.3987255E-1,9.659258E-1,3.0953323E1,3.6070415E-1,5.6868315E-1,5E-1,5E-1,4.9029514E-1,6.4562947E-1,-1.8369701E-16,-7.818315E-1,-2.5881904E-1,-2.5881904E-1,6.225888E-1,8.1077176E-1,7.0917326E-1,3.4347675E1,7.7501714E-1,9.659258E-1,3.513704E-1,5.4880095E-1,2.0385628E0,1.79249E1,4.2060646E-1,4.6470162E-1,6.226073E-1,6.6239965E-1,4.3276078E-1,6.323219E-1,-7.818315E-1,7.608146E-1,5.338947E-1,6.6239965E-1,1.2241948E0,1E0,5.062664E-1,-1.3397674E-1,6.9413084E-1,7.887049E-1,4.735191E-1,2.3236132E1,7.5236905E-1,8.391893E-1,5.6868315E-1,2.827505E1,3.3988823E1,1.1284763E0,7.0710677E-1,7.0710677E-1,9.1110873E-1,1.0063337E0,1.2184447E0,2.702338E0,-2.4492937E-16,4.3276078E-1,4.8134875E-1,1.0534449E-1,5.6868315E-1,8.493535E-1,1.5642008E1,4.735191E-1,3.9718685E-1,1.2246469E-16,4.200042E-1,5.062664E-1,7.0710677E-1,1.3350537E0,4.3276078E-1,1.1367251E0,1.1653296E0,7.661596E-1,9.659258E-1,9.659258E-1,8.448862E-1,1.0265187E0,4.447568E-1,5.7994473E-1,6.376503E-1,7.571662E-1,7.7393985E-1,2.6791606E-2,2.3799582E0,-4.0388103E-3,1.6004645E0,6.115337E-1,9.027369E-1,4.1640842E-1,8.2343405E-1,1.0840962E0,3.4627327E-1,9.761933E-1,5.8892214E-1,8.2075256E-1,4.9461854E-1,7.478882E-1,8.1392777E-1,8.1392777E-1,8.987425E-1,2.1670261E1,7.7067864E-1,7.288635E-1,8.534002E-1,2.8037655E-1,7.289556E-1,1E0,1.1383103E0,1.5541812E-2,5.4221857E-1,2.692969E1,2.7828358E1,9.8109204E-1,1.5478708E0,6.587931E-3,4.0515763E-1,4.2060646E-1,-3.5550126E-3,-3.304724E-3,-2.5223584E-3,-2.011392E-3,-2.3219183E-3,-2.7204228E-3,-1.2263502E-3,-2.6194581E-3,-2.4363748E-3,-1.7108332E-3,-1.8043483E-3,-2.1999567E-3,-1.5267838E-3,-9.657338E-4,-1.7102342E-4,-2.0825055E-3,-3.8591283E-3,-3.7464907E-3,-3.089945E-3,-2.767677E-3,-4.6843095E-3,-4.2193863E-3,-3.6797794E-3,-3.9664884E-3,-2.5113975E-3,-2.2477591E-3,-2.1224124E-3,-1.3198532E-3,-2.917727E-3,-3.3889352E-3,-2.998513E-3,-2.6543248E-3,-2.2927718E-3,-1.7245968E-3,-1.1896455E-3,-7.2700443E-4,-8.511096E-4,-8.378897E-5,-1.0534018E-4,4.18276E-4,-2.3996222E-3,-3.273028E-3,-2.6339532E-3,-8.3249404E-5,-1.7273941E-3,-2.346057E-3,-1.3359175E-3,-3.6904088E-3,-1.470174E-3,-1.1459648E-3,-3.245488E-4,3.9853336E-4,-2.7292855E-3,-2.1838134E-3,-1.4459338E-3,-8.5180416E-4,-2.8626511E-3,-9.830104E-4,-3.4737212E-3,-2.4437665E-3,3.545257E-3,1.7937402E-3,-1.8688457E-3,-8.5371244E-4,-7.987242E-4,-8.756043E-5,-1.2769472E-3,-2.514555E-3,-2.1165845E-3,-1.2927529E-3,3.1682718E-4,-1.7353696E-3,1.1362121E-3,-5.137141E-4,-9.999758E-4,-3.914354E-4,1.607646E-5,8.055843E-4,-3.1424023E-3,-2.8281696E-3,-1.9712728E-3,-2.3631493E-3,-1.4371326E-3,-2.0549574E-3,-8.973918E-5,-2.1486862E-3,-1.3830945E-3,-1.3807174E-3,-1.5597119E-3,-8.7755616E-4,-7.6415413E-4,3.5219284E-4,-8.264073E-4,-6.716464E-5,-8.888367E-4,-4.5872363E-5,-2.098211E-5,8.0127764E-4,8.2219066E-4,1.7169315E-3,-1.1300074E-3,4.8178346E-3,-2.8342367E-4,2.4298902E-3,-2.8624155E-3,3.227318E-3,-3.6099965E-3,-2.820211E-3,-2.4528399E-3,-2.0038488E-3,-4.9025466E-4,1.6650351E-3,-4.5894203E-4,4.412926E-4,2.1139442E-3,3.347073E-3,1.3348566E-3,2.403039E-3,4.3017995E-3,3.317203E-3,-2.3356423E-4,2.0373336E-3,-1.2748843E-3,3.3359015E-3],"split_indices":[0,0,0,46,44,46,47,3,3,46,46,3,3,46,0,3,3,46,46,3,3,46,47,46,46,4,3,3,0,3,46,28,4,37,0,3,3,3,3,3,38,47,38,38,3,40,46,3,43,3,3,3,0,4,38,3,0,0,3,46,46,3,3,11,37,49,3,24,19,4,7,0,3,24,49,28,4,46,38,4,40,40,10,46,46,14,26,3,38,38,4,38,44,33,0,33,39,26,32,5,6,27,38,42,39,42,8,21,21,4,0,13,14,3,32,3,46,38,44,3,0,0,3,9,0,3,5,0,0,0,0,0,0,0,0,0,0,0,0,0,0,0,0,0,0,0,0,0,0,0,0,0,0,0,0,0,0,0,0,0,0,0,0,0,0,0,0,0,0,0,0,0,0,0,0,0,0,0,0,0,0,0,0,0,0,0,0,0,0,0,0,0,0,0,0,0,0,0,0,0,0,0,0,0,0,0,0,0,0,0,0,0,0,0,0,0,0,0,0,0,0,0,0,0,0,0,0,0,0,0,0,0,0,0,0,0,0,0,0,0,0,0,0,0,0,0,0,0,0,0,0],"split_type":[0,0,0,0,0,0,0,0,0,0,0,0,0,0,0,0,0,0,0,0,0,0,0,0,0,0,0,0,0,0,0,0,0,0,0,0,0,0,0,0,0,0,0,0,0,0,0,0,0,0,0,0,0,0,0,0,0,0,0,0,0,0,0,0,0,0,0,0,0,0,0,0,0,0,0,0,0,0,0,0,0,0,0,0,0,0,0,0,0,0,0,0,0,0,0,0,0,0,0,0,0,0,0,0,0,0,0,0,0,0,0,0,0,0,0,0,0,0,0,0,0,0,0,0,0,0,0,0,0,0,0,0,0,0,0,0,0,0,0,0,0,0,0,0,0,0,0,0,0,0,0,0,0,0,0,0,0,0,0,0,0,0,0,0,0,0,0,0,0,0,0,0,0,0,0,0,0,0,0,0,0,0,0,0,0,0,0,0,0,0,0,0,0,0,0,0,0,0,0,0,0,0,0,0,0,0,0,0,0,0,0,0,0,0,0,0,0,0,0,0,0,0,0,0,0,0,0,0,0,0,0,0,0,0,0,0,0,0,0,0,0,0,0,0,0,0,0,0,0,0,0],"sum_hessian":[3.19875E5,4.5169E4,2.74706E5,2.6391E4,1.8778E4,1.7418E4,2.57288E5,3.804E3,2.2587E4,1.1276E4,7.502E3,9.215E3,8.203E3,7.449E4,1.82798E5,1.087E3,2.717E3,1.3066E4,9.521E3,2.249E3,9.027E3,5.84E3,1.662E3,2.935E3,6.28E3,1.793E3,6.41E3,6.875E4,5.74E3,3.561E4,1.47188E5,2.07E2,8.8E2,1.767E3,9.5E2,2.996E3,1.007E4,8.36E2,8.685E3,8.71E2,1.378E3,5.278E3,3.749E3,1.578E3,4.262E3,1.95E2,1.467E3,2.702E3,2.33E2,3.961E3,2.319E3,5.24E2,1.269E3,3.513E3,2.897E3,7.503E3,6.1247E4,3.99E3,1.75E3,7.46E3,2.815E4,1.27584E5,1.9604E4,1.84E2,2.3E1,8.09E2,7.1E1,1.06E2,1.661E3,7.47E2,2.03E2,1.018E3,1.978E3,4.626E3,5.444E3,4.97E2,3.39E2,4.419E3,4.266E3,4.02E2,4.69E2,9.41E2,4.37E2,3.662E3,1.616E3,1.602E3,2.147E3,6.31E2,9.47E2,1.588E3,2.674E3,1.1E2,8.5E1,1.46E3,7E0,7.9E2,1.912E3,1.19E2,1.14E2,1.432E3,2.529E3,9.17E2,1.402E3,7.4E1,4.5E2,1.045E3,2.24E2,1.489E3,2.024E3,6.91E2,2.206E3,1.01E3,6.493E3,2.3053E4,3.8194E4,3.518E3,4.72E2,8.76E2,8.74E2,4.675E3,2.785E3,1.2457E4,1.5693E4,9.574E3,1.1801E5,7.647E3,1.1957E4,1.53E2,3.1E1,1.8E1,5E0,2.95E2,5.14E2,5.4E1,1.7E1,9.2E1,1.4E1,1.302E3,3.59E2,4.58E2,2.89E2,1.94E2,9E0,4.24E2,5.94E2,8.38E2,1.14E3,1.988E3,2.638E3,2.662E3,2.782E3,1.51E2,3.46E2,7.1E1,2.68E2,6.87E2,3.732E3,3.819E3,4.47E2,2.29E2,1.73E2,2.79E2,1.9E2,6.45E2,2.96E2,6E0,4.31E2,2.569E3,1.093E3,1.12E3,4.96E2,1.078E3,5.24E2,2.094E3,5.3E1,1.06E2,5.25E2,3.8E2,5.67E2,2.76E2,1.312E3,1.377E3,1.297E3,3.6E1,7.4E1,2.2E1,6.3E1,1.442E3,1.8E1,3.4E1,7.56E2,1.46E2,1.766E3,1.13E2,6E0,8.2E1,3.2E1,1.393E3,3.9E1,2.503E3,2.6E1,7.25E2,1.92E2,1.157E3,2.45E2,2.7E1,4.7E1,3.35E2,1.15E2,1.86E2,8.59E2,6.2E1,1.62E2,2.36E2,1.253E3,5.5E1,1.969E3,6.22E2,6.9E1,2.89E2,1.917E3,6.69E2,3.41E2,3.882E3,2.611E3,9.752E3,1.3301E4,5E0,3.8189E4,9.8E1,3.42E3,1.6E2,3.12E2,3.28E2,5.48E2,2.21E2,6.53E2,1.33E2,4.542E3,1.6E2,2.625E3,3.547E3,8.91E3,7.451E3,8.242E3,8.306E3,1.268E3,3E1,7.617E3,7E0,1.195E4],"tree_param":{"num_deleted":"0","num_feature":"51","num_nodes":"251","size_leaf_vector":"1"}},{"base_weights":[6.3340073E-3,-4.237166E-1,7.675202E-2,-5.6890935E-1,-2.1915427E-1,-6.360571E-2,8.628435E-2,-6.173485E-1,-2.8056434E-1,-2.7499774E-1,-1.3751315E-1,-2.1974416E-3,-1.322522E-1,6.4624436E-2,9.508704E-2,-6.868791E-1,-5.2126426E-1,-4.6038076E-1,-2.0672862E-1,-3.1558105E-1,-1.1230283E-1,-2.3505083E-1,-8.493733E-3,-5.789254E-2,1.735888E-2,-2.3924011E-1,-6.1459586E-2,7.72382E-2,-8.62339E-2,7.9854675E-2,9.860825E-2,-7.2648984E-1,-5.5455446E-1,-5.434376E-1,-2.846437E-1,-6.216346E-1,-4.2243302E-1,-2.6567852E-1,-1.3026427E-1,-3.776812E-1,-2.0159388E-1,-2.2756183E-1,-4.0846094E-2,-3.5366887E-1,-1.619776E-1,9.2381604E-2,-8.937809E-2,-2.5027323E-1,-4.2000897E-2,-3.3420265E-2,5.015644E-2,-3.0557334E-1,-1.7924854E-1,-1.0561449E-1,-2.4622185E-2,3.0508826E-2,8.986783E-2,-4.363684E-1,8.671693E-2,5.3299565E-2,8.700834E-2,9.967238E-2,9.18694E-2,-7.8675675E-1,-6.854809E-1,-6.6355765E-1,-4.9702018E-1,-6.1391085E-1,-5.0281763E-1,-4.154882E-1,-2.0907335E-1,-2.4281248E-2,-5.841808E-1,-4.9463868E-1,-3.5534188E-1,-2.13E-2,-2.6255798E-1,-1.6042402E-1,-5.107692E-2,-2.6813626E-1,-4.1611463E-1,-1.6949503E-1,-3.0872574E-1,-3.5194173E-1,-1.8742235E-1,-8.087071E-2,8.631925E-3,-2.748021E-1,-4.2029145E-1,-2.8230768E-1,-1.4142296E-1,-1.7499998E-2,9.511019E-2,-6.721407E-2,-4.2300883E-1,-3.504587E-1,-1.0133333E-1,-1.06045745E-1,-1.7599499E-2,-8.152948E-2,3.161121E-2,2.3106692E-2,7.098424E-2,-3.9498955E-1,-2.657433E-1,-1.8859433E-1,-3.8532104E-2,-1.6359773E-1,-7.925497E-2,-5.0822906E-2,8.702933E-3,-3.557597E-2,4.7900833E-2,7.159526E-2,9.767534E-2,-5.5644995E-1,-3.110515E-1,-9.782605E-3,8.905751E-2,2.6599208E-2,6.956809E-2,8.1494495E-2,9.391898E-2,9.8457225E-2,2.9977162E-3,8.105366E-2,9.5514424E-2,-2.4645228E-2,-2.2682153E-2,-2.1115586E-2,-1.8833332E-2,-2.0746125E-2,-1.6321782E-2,-1.53193595E-2,-1.0410713E-2,-1.91064E-2,-1.4902486E-2,-1.5581333E-2,-1.0874999E-2,-1.475138E-2,-8.820512E-3,-7.835051E-3,-4.2499998E-3,-2.4999997E-3,-1.7947674E-2,-1.4246267E-2,-2.2821428E-2,-1.5787499E-2,-9.578406E-3,-8.9696525E-3,-6.9425423E-3,-4.6821428E-3,-1.5299999E-2,-3.9626863E-3,1.718751E-4,-1.1800539E-2,2.8363636E-3,-1.6640482E-2,-1.1215313E-2,-6.6232476E-3,-3.5307307E-3,1.7142858E-3,-1.0045994E-2,-1.6859999E-2,-8.484077E-3,-6.5009706E-3,-2.0999997E-3,-3.210843E-3,-9.1954006E-4,-9.1021653E-4,1.5513699E-3,-8.577291E-3,7.5000006E-4,-1.8365383E-2,-1.1373133E-2,-9.698924E-3,-5.330357E-3,-5.783302E-3,-2.8996735E-3,-1.4999999E-3,2.9556025E-3,-3.9526313E-3,-1.0431337E-3,-2.2124998E-2,-1.0033333E-2,-1.2539325E-2,-1.4285713E-3,-1.8749989E-4,-7.821428E-3,-4.6942146E-3,-9.719999E-4,-2.6918917E-3,-2.4648863E-4,-3.8594024E-3,-1.6184613E-3,-7.3333327E-3,1.0132276E-3,7.966387E-4,-6.7199995E-3,-6.2999995E-3,2.1646707E-3,-8.4999995E-3,-1.3518867E-2,-7.5860056E-3,-1.5054545E-2,-9.406451E-3,-5.2581737E-3,2.9411874E-5,-1.6125E-2,-6.8459013E-3,-3.4253728E-3,-2.261688E-3,-1.2166666E-2,-1.308379E-3,-6.4218747E-3,1.5678734E-3,-5.053049E-4,-5.6923074E-3,-6.118918E-4,-1.0531166E-4,1.7916489E-3,1.0741936E-3,2.371094E-3,2.6397505E-3,2.9875808E-3,-1.911244E-2,-1.4831522E-2,-1.1408366E-2,-6.8909507E-3,-4.1470584E-3,1.9322034E-3,-3.6428568E-3,2.69463E-3,-1.12E-2,8.6305855E-4,1.1300906E-3,2.3179208E-3,2.2083924E-3,2.8116114E-3,6.750001E-4,2.8244867E-3,2.9749623E-3,2.8069676E-3,-2.8124996E-3,2.447554E-3,2.0663266E-3,2.8756924E-3],"categories":[],"categories_nodes":[],"categories_segments":[],"categories_sizes":[],"default_left":[0,0,0,0,0,0,0,0,0,0,0,0,0,0,0,0,0,0,0,0,0,0,0,0,0,0,0,0,0,0,0,0,0,0,0,0,0,0,0,0,0,0,0,0,0,0,0,0,0,0,0,0,0,0,0,0,0,0,0,0,0,0,0,0,0,0,0,0,0,0,0,0,0,0,0,0,0,0,0,0,0,0,0,0,0,0,0,0,0,0,0,0,0,0,0,0,0,0,0,0,0,0,0,0,0,0,0,0,0,0,0,0,0,0,0,0,0,0,0,0,0,0,0,0,0,0,0,0,0,0,0,0,0,0,0,0,0,0,0,0,0,0,0,0,0,0,0,0,0,0,0,0,0,0,0,0,0,0,0,0,0,0,0,0,0,0,0,0,0,0,0,0,0,0,0,0,0,0,0,0,0,0,0,0,0,0,0,0,0,0,0,0,0,0,0,0,0,0,0,0,0,0,0,0,0,0,0,0,0,0,0,0,0,0,0,0,0,0,0,0,0,0,0,0,0,0,0,0,0,0,0,0,0,0,0,0,0,0,0,0,0,0,0,0,0,0,0],"id":4,"left_children":[1,3,5,7,9,11,13,15,17,19,21,23,25,27,29,31,33,35,37,39,41,43,45,47,49,51,53,55,57,59,61,63,65,67,69,71,73,75,77,79,81,83,85,87,89,91,93,95,97,99,101,103,105,107,109,111,113,115,117,119,121,123,125,127,129,131,133,135,137,139,141,-1,143,145,147,-1,149,151,153,155,157,159,161,163,165,167,169,171,173,175,177,-1,179,181,183,185,187,189,191,193,195,197,199,201,203,205,207,209,211,213,215,217,219,221,223,225,227,229,231,233,235,237,239,241,-1,243,245,-1,-1,-1,-1,-1,-1,-1,-1,-1,-1,-1,-1,-1,-1,-1,-1,-1,-1,-1,-1,-1,-1,-1,-1,-1,-1,-1,-1,-1,-1,-1,-1,-1,-1,-1,-1,-1,-1,-1,-1,-1,-1,-1,-1,-1,-1,-1,-1,-1,-1,-1,-1,-1,-1,-1,-1,-1,-1,-1,-1,-1,-1,-1,-1,-1,-1,-1,-1,-1,-1,-1,-1,-1,-1,-1,-1,-1,-1,-1,-1,-1,-1,-1,-1,-1,-1,-1,-1,-1,-1,-1,-1,-1,-1,-1,-1,-1,-1,-1,-1,-1,-1,-1,-1,-1,-1,-1,-1,-1,-1,-1,-1,-1,-1,-1,-1,-1,-1,-1,-1],"loss_changes":[9.697476E3,1.3381118E3,3.6816235E2,3.6788965E2,8.524518E1,7.37703E1,4.9122437E1,1.5036719E2,5.0250732E1,7.330072E1,9.5638336E1,1.0062953E1,6.256888E1,1.4169785E2,9.818726E0,6.818652E1,4.956299E1,6.4868927E0,1.2090744E1,6.2845703E1,1.8266462E1,3.745697E1,2.671344E1,7.329934E0,1.1389901E1,1.3037567E1,8.087868E0,4.0551666E1,3.4799292E2,6.5311737E0,1.0578613E0,2.4344238E1,1.8603638E1,2.4490234E1,7.9619293E0,9.897537E-1,4.1647797E0,1.9183197E0,2.7932472E0,2.410962E1,1.0735222E1,4.172703E0,2.7157423E0,8.548843E0,6.5886307E0,2.7418213E0,1.3407554E1,2.6951418E0,3.4659507E0,8.3997755E0,2.3392305E0,5.4544525E0,2.2678642E0,3.4442978E0,2.369277E0,1.6807457E1,7.710388E0,2.841861E1,8.697758E-1,3.1708298E0,1.0250244E0,2.9418945E-2,7.9278564E-1,3.71875E0,5.9177246E0,3.1010742E0,3.8693237E0,8.195557E0,1.2594238E1,2.6053772E0,1.7819843E0,0E0,1.197895E0,1.8946457E0,2.7163734E0,0E0,1.6426849E0,1.2122116E0,1.4964101E0,6.802074E1,2.47276E1,6.392128E0,6.9244003E0,2.8328571E0,2.1987305E0,9.92434E-1,1.0324445E0,2.5313492E0,6.8176575E0,1.6151619E0,5.248287E0,0E0,7.233896E-1,3.5654802E0,2.9007034E0,2.2088604E0,1.134956E0,2.267784E0,1.087578E0,1.9982347E0,6.9016695E-1,1.5472293E0,7.876911E-1,2.8480988E0,3.1652145E0,2.64505E0,2.1495132E0,2.2277756E0,1.9332247E0,1.7785299E0,1.3306644E0,7.1267176E0,7.035198E0,4.310898E0,6.9241333E-1,4.5343323E0,5.161545E0,8.856473E-1,6.145115E-1,2.4114394E0,1.1111126E0,1.4463654E0,1.9583893E-1,6.7276E-2,0E0,4.837761E-1,1.3169861E-1,0E0,0E0,0E0,0E0,0E0,0E0,0E0,0E0,0E0,0E0,0E0,0E0,0E0,0E0,0E0,0E0,0E0,0E0,0E0,0E0,0E0,0E0,0E0,0E0,0E0,0E0,0E0,0E0,0E0,0E0,0E0,0E0,0E0,0E0,0E0,0E0,0E0,0E0,0E0,0E0,0E0,0E0,0E0,0E0,0E0,0E0,0E0,0E0,0E0,0E0,0E0,0E0,0E0,0E0,0E0,0E0,0E0,0E0,0E0,0E0,0E0,0E0,0E0,0E0,0E0,0E0,0E0,0E0,0E0,0E0,0E0,0E0,0E0,0E0,0E0,0E0,0E0,0E0,0E0,0E0,0E0,0E0,0E0,0E0,0E0,0E0,0E0,0E0,0E0,0E0,0E0,0E0,0E0,0E0,0E0,0E0,0E0,0E0,0E0,0E0,0E0,0E0,0E0,0E0,0E0,0E0,0E0,0E0,0E0,0E0,0E0,0E0,0E0,0E0,0E0,0E0,0E0,0E0,0E0,0E0],"parents":[2147483647,0,0,1,1,2,2,3,3,4,4,5,5,6,6,7,7,8,8,9,9,10,10,11,11,12,12,13,13,14,14,15,15,16,16,17,17,18,18,19,19,20,20,21,21,22,22,23,23,24,24,25,25,26,26,27,27,28,28,29,29,30,30,31,31,32,32,33,33,34,34,35,35,36,36,37,37,38,38,39,39,40,40,41,41,42,42,43,43,44,44,45,45,46,46,47,47,48,48,49,49,50,50,51,51,52,52,53,53,54,54,55,55,56,56,57,57,58,58,59,59,60,60,61,61,62,62,63,63,64,64,65,65,66,66,67,67,68,68,69,69,70,70,72,72,73,73,74,74,76,76,77,77,78,78,79,79,80,80,81,81,82,82,83,83,84,84,85,85,86,86,87,87,88,88,89,89,90,90,92,92,93,93,94,94,95,95,96,96,97,97,98,98,99,99,100,100,101,101,102,102,103,103,104,104,105,105,106,106,107,107,108,108,109,109,110,110,111,111,112,112,113,113,114,114,115,115,116,116,117,117,118,118,119,119,120,120,121,121,122,122,123,123,125,125,126,126],"right_children":[2,4,6,8,10,12,14,16,18,20,22,24,26,28,30,32,34,36,38,40,42,44,46,48,50,52,54,56,58,60,62,64,66,68,70,72,74,76,78,80,82,84,86,88,90,92,94,96,98,100,102,104,106,108,110,112,114,116,118,120,122,124,126,128,130,132,134,136,138,140,142,-1,144,146,148,-1,150,152,154,156,158,160,162,164,166,168,170,172,174,176,178,-1,180,182,184,186,188,190,192,194,196,198,200,202,204,206,208,210,212,214,216,218,220,222,224,226,228,230,232,234,236,238,240,242,-1,244,246,-1,-1,-1,-1,-1,-1,-1,-1,-1,-1,-1,-1,-1,-1,-1,-1,-1,-1,-1,-1,-1,-1,-1,-1,-1,-1,-1,-1,-1,-1,-1,-1,-1,-1,-1,-1,-1,-1,-1,-1,-1,-1,-1,-1,-1,-1,-1,-1,-1,-1,-1,-1,-1,-1,-1,-1,-1,-1,-1,-1,-1,-1,-1,-1,-1,-1,-1,-1,-1,-1,-1,-1,-1,-1,-1,-1,-1,-1,-1,-1,-1,-1,-1,-1,-1,-1,-1,-1,-1,-1,-1,-1,-1,-1,-1,-1,-1,-1,-1,-1,-1,-1,-1,-1,-1,-1,-1,-1,-1,-1,-1,-1,-1,-1,-1,-1,-1,-1,-1,-1],"split_conditions":[2.1281317E1,1.8700798E1,2.493405E1,1E0,-1.19416766E-1,-1.8369701E-16,0E0,5.5547017E-1,4.447568E-1,1.2246469E-16,-2.5881904E-1,5.9359896E-1,7.141621E-1,9.659258E-1,3.0707663E1,9.659258E-1,9.659258E-1,3.6070415E-1,5.4880095E-1,6.678402E-1,4.9029514E-1,6.6239965E-1,8.023263E-1,-7.0710677E-1,-7.0710677E-1,4.8763773E-1,8.2343405E-1,7.9312766E-1,0E0,7.7501714E-1,9.659258E-1,4.5500758E-1,4.2060646E-1,6.226073E-1,4.3810162E-1,4.2060646E-1,1.7154501E1,2.6827905E-1,5.9359896E-1,8.111427E-1,-2.5881904E-1,3.4214565E-1,5.876315E-1,5E-1,6.225888E-1,5.128271E-1,1E0,7.239332E-1,4.9029514E-1,8.493535E-1,7.180532E-1,6.225888E-1,5.1334393E-1,7.3886013E-1,9.1521204E-1,-5E-1,9.9715096E-1,1.1284763E0,7.289556E-1,8.660254E-1,8.660254E-1,1.0403299E0,9.1110873E-1,3.9718685E-1,8.660254E-1,4.9029514E-1,4.402259E-1,8.660254E-1,1.3147312E0,6.226073E-1,4.0698323E-1,-3.5687608E-3,4.3276078E-1,1.2610946E0,3.3107466E-1,-4.168868E-3,4.9029514E-1,1.9626737E0,1.7537704E1,-2.5881904E-1,4.1464248E-1,7.478922E-1,8.457504E-1,3.6070415E-1,4.254506E-1,1.1614282E0,1.1703969E0,1.2574328E0,6.350936E-1,1.1253374E0,7.6619095E-1,-1.6015023E-3,5.755459E-1,4.735191E-1,1.0441611E0,9.1521204E-1,1.0534325E0,3.8315848E-1,1.0398257E0,7.0917326E-1,6.978276E-1,1.6932443E0,3.8701713E-1,7.618355E-1,4.5561573E-1,8.0645853E-1,1.0319625E0,2.2151371E1,1.1702039E0,9.891801E-1,6.110068E-1,5.9359896E-1,6.226073E-1,-7.0710677E-1,3.0036694E1,9.646169E-1,1.3094842E0,1.0230174E0,6.6239965E-1,5.281296E-1,6.3443303E-1,1.0403299E0,6.8702865E-1,1.6388723E0,6.705134E-3,3.8701713E-1,9.9259704E-1,-4.5245388E-3,-4.1111927E-3,-3.8303714E-3,-3.3557762E-3,-3.943428E-3,-2.996137E-3,-2.874371E-3,-2.4074442E-3,-3.4180407E-3,-2.8301508E-3,-2.9736601E-3,-2.3913581E-3,-2.7099296E-3,-1.8267715E-3,-1.9363441E-3,-1.211094E-3,-2.4570294E-3,-3.138929E-3,-2.5998566E-3,-2.7576284E-3,-3.2532753E-3,-2.1413695E-3,-2.0120863E-3,-1.6726359E-3,-1.37806E-3,-2.4146747E-3,-1.5206838E-3,1.9519885E-5,-2.4797209E-3,2.9082217E-3,-3.2448072E-3,-2.3565306E-3,-1.6312764E-3,-1.0542187E-3,1.5590484E-3,-2.4786168E-3,-2.5691055E-3,-1.617631E-3,-1.4482855E-3,-6.1564654E-4,-9.025554E-4,-2.5266779E-4,-2.775394E-4,4.886559E-4,-1.8021609E-3,-2.3751098E-4,-2.9894684E-3,-2.3051521E-3,-1.4472809E-3,-1.5592489E-3,-1.4009168E-3,-7.889694E-4,-8.6727156E-4,3.3106997E-3,-1.0397673E-3,-3.8760508E-4,-3.589651E-3,-2.319712E-3,-1.3802934E-3,-2.3465368E-3,-3.946881E-4,-1.817064E-3,-1.5643196E-3,-3.8223623E-4,-7.3459354E-4,-1.4802681E-4,-1.419611E-3,-6.6248776E-4,-8.045733E-4,4.1988963E-4,3.3037845E-4,-3.7369027E-4,-2.022389E-3,1.2652396E-3,-1.6859212E-3,-2.4053748E-3,-1.8077847E-3,-1.9917486E-3,-1.5248224E-3,-1.4474476E-3,-4.9577735E-5,-2.2465799E-3,-1.4458125E-3,-1.0651019E-3,-6.258827E-4,-2.6466183E-3,-4.3837234E-4,-1.804804E-3,4.0713666E-4,-1.8077229E-4,-1.3087189E-3,-2.0699143E-4,-5.9551276E-5,9.181856E-4,5.2626646E-4,1.7295374E-3,2.1366728E-3,6.064053E-3,-3.5549826E-3,-2.7616713E-3,-2.3268624E-3,-1.7521803E-3,-7.6034095E-4,7.774045E-4,-6.6532264E-4,2.4554906E-3,-2.1561522E-3,3.7140702E-4,7.9975254E-4,1.6599194E-3,1.4222302E-3,2.557158E-3,8.5053203E-4,2.8237535E-3,4.479424E-3,3.4450092E-3,-3.1285948E-4,1.7788777E-3,1.5266775E-3,3.0035353E-3],"split_indices":[0,0,0,45,44,46,47,3,3,45,45,3,3,46,0,45,45,3,3,3,3,3,30,45,45,41,3,3,45,3,46,3,3,3,28,8,0,36,4,30,45,28,3,49,4,21,46,4,3,3,21,4,28,4,4,45,39,3,3,45,45,3,3,24,45,4,36,45,18,3,36,0,8,30,36,0,3,14,0,45,41,3,30,3,32,40,40,12,18,34,3,0,22,4,3,6,15,24,34,3,18,13,4,9,36,21,13,0,18,13,13,3,3,45,0,3,3,7,4,12,3,3,18,11,0,3,21,0,0,0,0,0,0,0,0,0,0,0,0,0,0,0,0,0,0,0,0,0,0,0,0,0,0,0,0,0,0,0,0,0,0,0,0,0,0,0,0,0,0,0,0,0,0,0,0,0,0,0,0,0,0,0,0,0,0,0,0,0,0,0,0,0,0,0,0,0,0,0,0,0,0,0,0,0,0,0,0,0,0,0,0,0,0,0,0,0,0,0,0,0,0,0,0,0,0,0,0,0,0,0,0,0,0,0,0,0,0,0,0,0,0,0,0,0,0,0,0],"split_type":[0,0,0,0,0,0,0,0,0,0,0,0,0,0,0,0,0,0,0,0,0,0,0,0,0,0,0,0,0,0,0,0,0,0,0,0,0,0,0,0,0,0,0,0,0,0,0,0,0,0,0,0,0,0,0,0,0,0,0,0,0,0,0,0,0,0,0,0,0,0,0,0,0,0,0,0,0,0,0,0,0,0,0,0,0,0,0,0,0,0,0,0,0,0,0,0,0,0,0,0,0,0,0,0,0,0,0,0,0,0,0,0,0,0,0,0,0,0,0,0,0,0,0,0,0,0,0,0,0,0,0,0,0,0,0,0,0,0,0,0,0,0,0,0,0,0,0,0,0,0,0,0,0,0,0,0,0,0,0,0,0,0,0,0,0,0,0,0,0,0,0,0,0,0,0,0,0,0,0,0,0,0,0,0,0,0,0,0,0,0,0,0,0,0,0,0,0,0,0,0,0,0,0,0,0,0,0,0,0,0,0,0,0,0,0,0,0,0,0,0,0,0,0,0,0,0,0,0,0,0,0,0,0,0,0,0,0,0,0,0,0,0,0,0,0,0,0],"sum_hessian":[3.20223E5,4.5056E4,2.75167E5,2.6351E4,1.8705E4,1.7499E4,2.57668E5,2.256E4,3.791E3,1.1106E4,7.599E3,9.237E3,8.262E3,7.446E4,1.83208E5,1.3085E4,9.475E3,1.102E3,2.689E3,8.888E3,2.218E3,4.327E3,3.272E3,2.4E3,6.837E3,3.289E3,4.973E3,6.8715E4,5.745E3,3.4404E4,1.48804E5,1.0067E4,3.018E3,8.662E3,8.13E2,2.07E2,8.95E2,1.517E3,1.172E3,5.752E3,3.136E3,8.48E2,1.37E3,1.648E3,2.679E3,1.456E3,1.816E3,1.82E2,2.218E3,2.683E3,4.154E3,1.56E3,1.729E3,2.261E3,2.712E3,1.4621E4,5.4094E4,1.899E3,3.846E3,7.303E3,2.7101E4,1.28499E5,2.0305E4,4.069E3,5.998E3,1.039E3,1.979E3,3.162E3,5.5E3,2.96E2,5.17E2,3.1E1,1.76E2,4.28E2,4.67E2,9E0,1.508E3,8.48E2,3.24E2,1.496E3,4.256E3,2.415E3,7.21E2,2.05E2,6.43E2,7.57E2,6.13E2,7.57E2,8.91E2,3.89E2,2.29E3,5E0,1.451E3,1.704E3,1.12E2,1.08E2,7.4E1,6.11E2,1.607E3,1.542E3,1.141E3,1.808E3,2.346E3,4.78E2,1.082E3,1.621E3,1.08E2,7.05E2,1.556E3,1.518E3,1.194E3,3.046E3,1.1575E4,1.6197E4,3.7897E4,9.68E2,9.31E2,9.1E1,3.755E3,2.766E3,4.537E3,1.5081E4,1.202E4,2.2102E4,1.06397E5,5.124E3,1.5181E4,1.896E3,2.173E3,4.541E3,1.457E3,8.38E2,2.01E2,1.812E3,1.67E2,2.64E3,5.22E2,4.917E3,5.83E2,1.8E2,1.16E2,2.9E2,2.27E2,5E0,1.71E2,4.01E2,2.7E1,7.9E1,3.88E2,6.91E2,8.17E2,8.39E2,9E0,1.33E2,1.91E2,1.112E3,3.84E2,9.92E2,3.264E3,1.212E3,1.203E3,4.8E1,6.73E2,4.9E1,1.56E2,5.14E2,1.29E2,4.97E2,2.6E2,3.22E2,2.91E2,7.3E2,2.7E1,1.55E2,7.36E2,2.78E2,1.11E2,1.065E3,1.225E3,3.3E1,1.418E3,5.69E2,1.135E3,2.3E1,8.9E1,8.8E1,2E1,4.7E1,2.7E1,3.62E2,2.49E2,1.84E2,1.423E3,5.68E2,9.74E2,8E0,1.133E3,1.784E3,2.4E1,9E0,2.337E3,1.61E2,3.17E2,1.028E3,5.4E1,1.54E2,1.467E3,1.01E2,7E0,3.04E2,4.01E2,1.539E3,1.7E1,1.455E3,6.3E1,4.41E2,7.53E2,2.72E2,2.774E3,2.164E3,9.411E3,2.789E3,1.3408E4,6.253E3,3.1644E4,4.17E2,5.51E2,5.01E2,4.3E2,3.3E1,5.8E1,1.3E1,3.742E3,1.4E1,2.752E3,8.83E2,3.654E3,9.174E3,5.907E3,3.9E1,1.1981E4,1.929E4,2.812E3,1.5E1,5.109E3,1.95E2,1.4986E4],"tree_param":{"num_deleted":"0","num_feature":"51","num_nodes":"247","size_leaf_vector":"1"}},{"base_weights":[7.842546E-3,-4.1040298E-1,7.66867E-2,-5.541641E-1,-2.0817639E-1,-6.0368527E-2,8.60236E-2,-6.2521434E-1,-4.568882E-1,-2.6141182E-1,-1.2232874E-1,5.4136394E-3,-9.3829066E-2,4.4556957E-2,9.063981E-2,-7.1361417E-1,-5.656188E-1,-3.8580993E-1,-5.2643615E-1,-2.9213446E-1,-1.1854014E-1,-8.572882E-2,-1.6632996E-1,-6.441504E-2,2.7815016E-2,-1.8985148E-1,-3.4350608E-2,1.2944888E-2,6.405319E-2,7.384774E-2,9.667078E-2,-7.697174E-1,-6.78216E-1,-6.054221E-1,-5.0049007E-1,-4.4412443E-1,-2.4703725E-1,-6.607829E-1,-4.8388147E-1,-3.4446144E-1,-2.0830609E-1,-2.7569228E-1,-8.896591E-2,-3.8782609E-1,-7.660466E-2,-1.0614464E-1,-2.4366689E-1,-1.2847058E-1,-3.745059E-2,-1.6831683E-1,3.2335468E-2,-2.6539811E-1,-1.4263792E-1,-7.474259E-2,-3.4897972E-3,-8.692403E-2,2.1822412E-2,5.0881412E-2,8.000833E-2,5.5814277E-2,9.967797E-2,8.671899E-2,9.929448E-2,-8.2713044E-1,-7.5091815E-1,-6.4880866E-1,-7.682162E-1,-5.687635E-1,-6.744257E-1,-4.514689E-1,-5.5123526E-1,-5.339145E-1,-3.6832386E-1,-3.5113063E-1,-1.4833729E-1,-3.1470588E-1,-6.6919E-1,-5.10006E-1,-3.928125E-1,-4.0547088E-1,-2.4260435E-1,-2.7917832E-1,-1.7905456E-1,-4.3181816E-1,-2.3499998E-1,-2.7222222E-1,-6.0280368E-2,-5.323077E-1,-1.9607842E-1,-4.8428357E-2,-1.4778188E-1,1.5945949E-2,-1.3680272E-1,-3.742802E-1,-1.6853684E-1,-3.2765958E-1,-1.0343007E-1,-2.7564762E-2,-2.3541665E-1,-2.0666664E-2,-1.16129026E-1,-8.977552E-3,4.798362E-2,-1.9581589E-1,-3.1542337E-1,-8.043715E-2,-1.7377947E-1,-1.2446448E-1,-5.486048E-2,-4.4819076E-2,1.4120536E-2,-5.3484317E-2,-1.6999999E-1,3.7986025E-2,-4.3163346E-3,1.5492025E-2,5.82331E-2,8.820011E-2,5.3250592E-2,7.7057794E-2,-3.369502E-2,2.992664E-3,8.9952156E-2,8.161452E-2,9.44166E-2,9.689817E-2,9.974358E-2,-2.5033746E-2,-1.3384614E-2,-2.1757118E-2,-2.4308987E-2,-2.096496E-2,-1.8494258E-2,-2.3504963E-2,-1.9775E-2,-1.5621621E-2,-1.8956766E-2,-6.2999995E-3,-2.0293845E-2,-1.2743459E-2,-1.6298734E-2,-1.6767148E-2,-6.307692E-3,-1.6800402E-2,-1.1958762E-2,-8.847879E-3,-1.3948351E-2,-1.4394849E-2,-8.920212E-3,-6.503164E-3,-3.210626E-3,-4.285714E-3,-1.65E-2,-1.8006977E-2,-2.1050448E-2,-1.2924471E-2,-1.630351E-2,-1.2486385E-2,-7.999999E-3,-1.5097131E-2,-1.0937162E-2,-5.3133937E-3,-8.325208E-3,-8.032723E-3,-1.8909091E-2,-6.4610816E-3,-3.8472859E-3,-8.232557E-3,-2.0875E-2,-8.195453E-3,-7.3170714E-4,-3.042857E-3,-1.0290909E-2,-1.598644E-3,-1.4624999E-2,-1.8327272E-2,-2.7272725E-3,-2.4615382E-3,-1.5692307E-2,9.1730774E-4,-2.008119E-3,-8.218868E-3,-3.2017112E-3,2.9871245E-3,-3.7608691E-3,-5.5696717E-3,-2.64682E-3,-8.413407E-3,-1.2664722E-2,-7.836898E-3,-3.106343E-3,-1.3548386E-2,-2.470588E-3,-4.688976E-3,1.1904772E-4,-2.5579934E-3,2.782082E-5,2.7E-3,-9.384614E-3,-8.035713E-4,-7.342105E-3,6.875982E-4,-1.3439152E-3,1.6509445E-4,1.7581725E-3,-8.649532E-3,-4.6845237E-3,-1.2161615E-2,-8.297414E-3,2.618183E-4,-3.556942E-3,-5.462814E-3,5.921053E-4,-2.682965E-3,-6.3425195E-3,-1.888515E-3,1.9225351E-3,-5.6249986E-4,-2.7575055E-3,-1.504587E-3,6.7286403E-4,-1.3368982E-3,-1.2214285E-2,-7.59836E-3,-2.2568805E-3,5.6865136E-4,1.5920334E-3,-1.8632985E-3,2.9028786E-4,-1.4035712E-3,8.914286E-4,1.7699042E-3,-2.7567565E-3,2.6923086E-4,2.6795955E-3,-4.1666656E-4,2.2112567E-3,1.6708358E-3,2.5067187E-3,6.745034E-4,-2.3180065E-3,-3.1578934E-4,2.9842933E-3,2.027865E-3,2.497155E-3,1.1470588E-3,2.8363522E-3,2.9796667E-3,2.8535456E-3,2.8978214E-3,2.9950738E-3],"categories":[],"categories_nodes":[],"categories_segments":[],"categories_sizes":[],"default_left":[0,0,0,0,0,0,0,0,0,0,0,0,0,0,0,0,0,0,0,0,0,0,0,0,0,0,0,0,0,0,0,0,0,0,0,0,0,0,0,0,0,0,0,0,0,0,0,0,0,0,0,0,0,0,0,0,0,0,0,0,0,0,0,0,0,0,0,0,0,0,0,0,0,0,0,0,0,0,0,0,0,0,0,0,0,0,0,0,0,0,0,0,0,0,0,0,0,0,0,0,0,0,0,0,0,0,0,0,0,0,0,0,0,0,0,0,0,0,0,0,0,0,0,0,0,0,0,0,0,0,0,0,0,0,0,0,0,0,0,0,0,0,0,0,0,0,0,0,0,0,0,0,0,0,0,0,0,0,0,0,0,0,0,0,0,0,0,0,0,0,0,0,0,0,0,0,0,0,0,0,0,0,0,0,0,0,0,0,0,0,0,0,0,0,0,0,0,0,0,0,0,0,0,0,0,0,0,0,0,0,0,0,0,0,0,0,0,0,0,0,0,0,0,0,0,0,0,0,0,0,0,0,0,0,0,0,0,0,0,0,0,0,0,0,0,0,0,0,0,0,0],"id":5,"left_children":[1,3,5,7,9,11,13,15,17,19,21,23,25,27,29,31,33,35,37,39,41,43,45,47,49,51,53,55,57,59,61,63,65,67,69,71,73,75,77,79,81,83,85,87,89,91,93,95,97,99,101,103,105,107,109,111,113,115,117,119,121,123,125,127,129,131,133,135,137,139,141,143,145,147,149,151,153,155,157,159,161,163,165,167,169,171,173,175,177,179,181,183,185,187,189,191,193,195,197,-1,199,201,203,205,207,209,211,213,215,217,219,221,223,225,227,229,231,233,235,237,239,-1,241,243,245,247,249,-1,-1,-1,-1,-1,-1,-1,-1,-1,-1,-1,-1,-1,-1,-1,-1,-1,-1,-1,-1,-1,-1,-1,-1,-1,-1,-1,-1,-1,-1,-1,-1,-1,-1,-1,-1,-1,-1,-1,-1,-1,-1,-1,-1,-1,-1,-1,-1,-1,-1,-1,-1,-1,-1,-1,-1,-1,-1,-1,-1,-1,-1,-1,-1,-1,-1,-1,-1,-1,-1,-1,-1,-1,-1,-1,-1,-1,-1,-1,-1,-1,-1,-1,-1,-1,-1,-1,-1,-1,-1,-1,-1,-1,-1,-1,-1,-1,-1,-1,-1,-1,-1,-1,-1,-1,-1,-1,-1,-1,-1,-1,-1,-1,-1,-1,-1,-1,-1,-1,-1,-1,-1,-1,-1],"loss_changes":[9.21582E3,1.3150293E3,3.516919E2,1.824541E2,8.587744E1,3.858371E1,4.924756E1,8.00791E1,5.498462E1,5.0891174E1,1.1576088E1,9.248124E0,6.635267E1,1.5885342E1,2.3439941E1,1.16875E1,2.3365234E1,4.4601074E1,3.192456E1,4.1810364E1,9.5264015E0,1.0805634E1,1.5180542E1,2.4754796E0,3.9738853E0,1.581311E1,8.944834E0,8.720611E0,3.3464737E0,2.8494446E1,4.438843E0,1.9379883E0,9.500732E0,1.3938721E1,8.380554E0,2.62724E1,1.6766472E1,3.7288818E0,9.998962E0,3.642279E1,7.5625305E0,1.9632854E0,9.083124E0,3.0815868E0,7.6478767E0,6.8856754E0,1.3959663E1,2.0859227E0,1.9740534E0,2.6639185E0,2.8293939E0,5.88356E0,5.28767E0,3.0656662E0,2.9621418E0,2.2216702E0,3.8161535E0,2.2719574E0,1.5752487E0,6.851717E1,9.979248E-3,1.3890076E0,1.3549805E-1,1.2329407E0,2.152771E0,4.1851807E0,1.0250854E0,1.0904785E1,1.710144E0,4.1065063E0,4.328369E0,6.054718E0,1.4840057E1,5.3677826E0,2.357542E0,1.2962182E0,2.5386353E0,8.580017E0,2.7227936E0,1.4507141E1,4.988785E0,4.1261063E0,4.773628E0,2.5517378E0,2.0841188E0,2.7951012E0,4.4488797E0,2.1996098E0,1.8587029E0,4.0029116E0,5.576317E0,4.38473E0,3.4720116E0,2.2221985E0,5.4490547E0,1.3919172E0,2.1526036E0,1.5865812E0,1.2372022E0,0E0,1.0620376E0,1.3755217E0,1.4318919E0,2.58572E0,3.3543777E0,3.111691E0,2.9367294E0,2.683034E0,2.1421924E0,1.4912765E0,1.5251629E0,1.7928276E0,1.7961922E0,1.6008558E0,2.7921739E0,1.3335288E0,8.346958E-1,4.8862457E-1,2.3250484E0,4.038803E0,1.6920935E1,0E0,2.0105708E-1,4.8114014E-1,9.862518E-2,8.250427E-2,2.331543E-2,0E0,0E0,0E0,0E0,0E0,0E0,0E0,0E0,0E0,0E0,0E0,0E0,0E0,0E0,0E0,0E0,0E0,0E0,0E0,0E0,0E0,0E0,0E0,0E0,0E0,0E0,0E0,0E0,0E0,0E0,0E0,0E0,0E0,0E0,0E0,0E0,0E0,0E0,0E0,0E0,0E0,0E0,0E0,0E0,0E0,0E0,0E0,0E0,0E0,0E0,0E0,0E0,0E0,0E0,0E0,0E0,0E0,0E0,0E0,0E0,0E0,0E0,0E0,0E0,0E0,0E0,0E0,0E0,0E0,0E0,0E0,0E0,0E0,0E0,0E0,0E0,0E0,0E0,0E0,0E0,0E0,0E0,0E0,0E0,0E0,0E0,0E0,0E0,0E0,0E0,0E0,0E0,0E0,0E0,0E0,0E0,0E0,0E0,0E0,0E0,0E0,0E0,0E0,0E0,0E0,0E0,0E0,0E0,0E0,0E0,0E0,0E0,0E0,0E0,0E0,0E0,0E0,0E0,0E0,0E0,0E0,0E0,0E0,0E0],"parents":[2147483647,0,0,1,1,2,2,3,3,4,4,5,5,6,6,7,7,8,8,9,9,10,10,11,11,12,12,13,13,14,14,15,15,16,16,17,17,18,18,19,19,20,20,21,21,22,22,23,23,24,24,25,25,26,26,27,27,28,28,29,29,30,30,31,31,32,32,33,33,34,34,35,35,36,36,37,37,38,38,39,39,40,40,41,41,42,42,43,43,44,44,45,45,46,46,47,47,48,48,49,49,50,50,51,51,52,52,53,53,54,54,55,55,56,56,57,57,58,58,59,59,60,60,61,61,62,62,63,63,64,64,65,65,66,66,67,67,68,68,69,69,70,70,71,71,72,72,73,73,74,74,75,75,76,76,77,77,78,78,79,79,80,80,81,81,82,82,83,83,84,84,85,85,86,86,87,87,88,88,89,89,90,90,91,91,92,92,93,93,94,94,95,95,96,96,97,97,98,98,100,100,101,101,102,102,103,103,104,104,105,105,106,106,107,107,108,108,109,109,110,110,111,111,112,112,113,113,114,114,115,115,116,116,117,117,118,118,119,119,120,120,122,122,123,123,124,124,125,125,126,126],"right_children":[2,4,6,8,10,12,14,16,18,20,22,24,26,28,30,32,34,36,38,40,42,44,46,48,50,52,54,56,58,60,62,64,66,68,70,72,74,76,78,80,82,84,86,88,90,92,94,96,98,100,102,104,106,108,110,112,114,116,118,120,122,124,126,128,130,132,134,136,138,140,142,144,146,148,150,152,154,156,158,160,162,164,166,168,170,172,174,176,178,180,182,184,186,188,190,192,194,196,198,-1,200,202,204,206,208,210,212,214,216,218,220,222,224,226,228,230,232,234,236,238,240,-1,242,244,246,248,250,-1,-1,-1,-1,-1,-1,-1,-1,-1,-1,-1,-1,-1,-1,-1,-1,-1,-1,-1,-1,-1,-1,-1,-1,-1,-1,-1,-1,-1,-1,-1,-1,-1,-1,-1,-1,-1,-1,-1,-1,-1,-1,-1,-1,-1,-1,-1,-1,-1,-1,-1,-1,-1,-1,-1,-1,-1,-1,-1,-1,-1,-1,-1,-1,-1,-1,-1,-1,-1,-1,-1,-1,-1,-1,-1,-1,-1,-1,-1,-1,-1,-1,-1,-1,-1,-1,-1,-1,-1,-1,-1,-1,-1,-1,-1,-1,-1,-1,-1,-1,-1,-1,-1,-1,-1,-1,-1,-1,-1,-1,-1,-1,-1,-1,-1,-1,-1,-1,-1,-1,-1,-1,-1,-1],"split_conditions":[2.1281317E1,1.8700798E1,2.493405E1,1.658628E1,-9.889149E-2,5.9357435E-1,7.7501714E-1,4.735191E-1,7.288962E-1,3.65991E-1,5E-1,5.5547017E-1,7.141621E-1,2.7388058E1,0E0,4.0515763E-1,5.813679E-1,8.8390166E-1,5.2818316E-1,6.4562947E-1,4.447568E-1,1.8922712E1,1.9460896E1,4.735191E-1,2.7725625E-1,6.110767E-1,8.2343405E-1,5.61917E-1,3.0136507E1,3.7339233E1,3.2211426E1,1.5074957E1,7.7501714E-1,7.3389584E-1,1.2246469E-16,-9.495978E-2,4.982593E-1,4.9824008E-1,8.3439805E-2,-7.818315E-1,1.9712563E1,9.891801E-1,1.0751051E0,1.2085409E0,2.0513783E1,1.8922712E1,6.678402E-1,-9.233058E-1,4.9071863E-1,7.517018E-1,9.0096466E-2,7.618355E-1,7.478882E-1,2.2151371E1,1.5698698E-1,6.16855E-1,6.729655E-1,6.3443303E-1,9.468184E-1,3.3988823E1,2.1363015E0,1.022988E0,1.0403299E0,1.3309308E0,7.7061385E-1,1.5394708E1,4.6392494E-1,5E-1,2.3946011E-1,1.0796672E0,7.2675073E-1,6.4562947E-1,9.2516947E-1,4.0515763E-1,1.8872952E0,1.0840659E0,8.911718E-1,1.0817947E0,1.4668598E0,5.2116954E-1,6.729655E-1,1.2166835E0,7.478922E-1,6.6189957E-1,1.4082922E0,3.7501064E-1,6.4969116E-1,2.824573E-1,6.7250335E-1,1.9712563E1,6.4562947E-1,7.9815936E-1,6.226073E-1,7.3886013E-1,7.872662E-1,1.272918E0,3.8145387E-1,1.0727979E0,1.053584E0,-2.558923E-3,6.6236526E-1,5E-1,5.6592256E-1,5.6868315E-1,5.352028E-1,6.5122783E-1,5.288612E-1,1.1898557E0,4.174246E-1,8.7813354E-1,2.1970533E1,1.1560678E-1,2.6354912E1,5.6868315E-1,6.4562947E-1,4.266575E-1,2.2201958E-1,4.3276078E-1,0E0,2.6528893E1,1.4082922E0,6.7333886E-3,-4.452152E-1,2.7388058E1,4.3924008E-2,7.8335196E-1,3.3988823E1,-4.543768E-3,-4.611624E-3,-4.116006E-3,-4.377886E-3,-3.8104157E-3,-3.4401661E-3,-4.158831E-3,-3.7574125E-3,-2.9506437E-3,-3.510458E-3,-2.4577966E-3,-3.728772E-3,-2.6805236E-3,-2.8099706E-3,-3.139722E-3,-1.9988099E-3,-3.2711974E-3,-2.3332029E-3,-2.1438142E-3,-2.8381178E-3,-2.7666676E-3,-2.0796494E-3,-1.5893715E-3,-1.0843135E-3,-1.7926116E-3,-3.4018708E-3,-3.5447215E-3,-3.7438322E-3,-2.6954927E-3,-3.0120818E-3,-2.605178E-3,-2.2365171E-3,-3.056828E-3,-2.230621E-3,-1.6561628E-3,-2.1650025E-3,-1.91201E-3,-4.2609144E-3,-1.5621394E-3,-9.831798E-4,-2.2298347E-3,-2.831465E-3,-1.6163125E-3,-1.0158328E-3,-6.245175E-4,-2.2229946E-3,-5.7190104E-4,-3.1983363E-3,-3.0133876E-3,-2.1502646E-3,-1.2696804E-3,-4.794603E-3,2.2704274E-4,-7.336049E-4,-1.6717488E-3,-9.433836E-4,2.1081362E-3,-1.5775217E-3,-1.7108372E-3,-8.864874E-4,-2.0186014E-3,-2.3786954E-3,-1.8573911E-3,-7.993404E-4,-2.742616E-3,-1.4523701E-3,-1.5288045E-3,2.3328353E-6,-5.631262E-4,2.3390976E-6,1.0049968E-3,-1.1104058E-3,-5.933247E-4,-1.1187878E-3,3.4185764E-4,-4.128216E-4,2.460445E-5,9.1303955E-4,-1.4043036E-3,-1.2679874E-3,-2.245689E-3,-1.8528402E-3,5.8755137E-5,-1.1606291E-3,-1.367863E-3,2.2162772E-4,-7.950187E-4,-1.3581358E-3,-6.805859E-4,3.719682E-4,-1.9026427E-4,-6.4718886E-4,-3.421406E-4,2.2742772E-4,-4.0627032E-4,-2.0933656E-3,-1.4907401E-3,-5.237371E-4,2.4749426E-4,6.711468E-4,-4.881069E-4,1.11470814E-4,-3.5748837E-4,4.3505518E-4,9.711017E-4,-9.2787E-4,2.9735456E-4,2.5893885E-3,-4.7311228E-4,1.5015709E-3,9.528199E-4,1.9316658E-3,6.147632E-4,-1.1571205E-3,-3.2305167E-4,5.5975136E-3,1.3006299E-3,1.9870182E-3,7.6654425E-4,2.7731801E-3,5.0823265E-3,3.1833283E-3,3.4660283E-3,6.231532E-3],"split_indices":[0,0,0,0,44,7,3,3,8,27,49,3,3,0,47,3,3,39,3,3,3,0,0,3,31,3,3,3,0,0,0,0,6,6,49,44,3,7,44,47,0,13,30,5,0,0,3,44,24,25,19,9,6,0,23,9,8,3,38,0,13,3,3,30,7,0,24,49,31,6,28,3,25,3,29,13,21,21,3,3,8,30,3,17,16,31,32,44,17,0,3,30,3,12,38,12,32,34,34,0,13,49,38,13,3,9,28,25,27,8,0,43,0,13,3,24,43,3,47,0,12,0,43,0,19,24,0,0,0,0,0,0,0,0,0,0,0,0,0,0,0,0,0,0,0,0,0,0,0,0,0,0,0,0,0,0,0,0,0,0,0,0,0,0,0,0,0,0,0,0,0,0,0,0,0,0,0,0,0,0,0,0,0,0,0,0,0,0,0,0,0,0,0,0,0,0,0,0,0,0,0,0,0,0,0,0,0,0,0,0,0,0,0,0,0,0,0,0,0,0,0,0,0,0,0,0,0,0,0,0,0,0,0,0,0,0,0,0,0,0,0,0,0,0,0,0,0,0,0,0,0],"split_type":[0,0,0,0,0,0,0,0,0,0,0,0,0,0,0,0,0,0,0,0,0,0,0,0,0,0,0,0,0,0,0,0,0,0,0,0,0,0,0,0,0,0,0,0,0,0,0,0,0,0,0,0,0,0,0,0,0,0,0,0,0,0,0,0,0,0,0,0,0,0,0,0,0,0,0,0,0,0,0,0,0,0,0,0,0,0,0,0,0,0,0,0,0,0,0,0,0,0,0,0,0,0,0,0,0,0,0,0,0,0,0,0,0,0,0,0,0,0,0,0,0,0,0,0,0,0,0,0,0,0,0,0,0,0,0,0,0,0,0,0,0,0,0,0,0,0,0,0,0,0,0,0,0,0,0,0,0,0,0,0,0,0,0,0,0,0,0,0,0,0,0,0,0,0,0,0,0,0,0,0,0,0,0,0,0,0,0,0,0,0,0,0,0,0,0,0,0,0,0,0,0,0,0,0,0,0,0,0,0,0,0,0,0,0,0,0,0,0,0,0,0,0,0,0,0,0,0,0,0,0,0,0,0,0,0,0,0,0,0,0,0,0,0,0,0,0,0,0,0,0,0],"sum_hessian":[3.20061E5,4.5236E4,2.74825E5,2.6439E4,1.8797E4,1.7528E4,2.57297E5,1.5276E4,1.1163E4,1.1601E4,7.196E3,5.91E3,1.1618E4,2.5775E4,2.31522E5,6.147E3,9.129E3,5.524E3,5.639E3,9.547E3,2.054E3,3.93E3,3.266E3,1.435E3,4.475E3,4.443E3,7.175E3,9.833E3,1.5942E4,6.1183E4,1.70339E5,2.37E3,3.777E3,5.661E3,3.468E3,3.888E3,1.636E3,1.353E3,4.286E3,5.876E3,3.671E3,3.24E2,1.73E3,1.14E2,3.816E3,1.838E3,1.428E3,4.24E2,1.011E3,1E2,4.375E3,1.707E3,2.736E3,3.107E3,4.068E3,8.02E2,9.031E3,8.735E3,7.207E3,3.6031E4,2.5152E4,3.5546E4,1.34793E5,5.74E2,1.796E3,2.853E3,9.24E2,3.703E3,1.958E3,1.769E3,1.699E3,1.777E3,2.111E3,7.95E2,8.41E2,3.3E1,1.32E3,3.327E3,9.59E2,3.673E3,2.203E3,1.07E3,2.601E3,6.5E1,2.59E2,2.33E2,1.497E3,6.4E1,5E1,2.735E3,1.081E3,3.69E2,1.469E3,5.2E2,9.08E2,4.6E1,3.78E2,9.64E2,4.7E1,8E0,9.2E1,1.202E3,3.173E3,7.16E2,9.91E2,9.14E2,1.822E3,8.86E2,2.221E3,1.215E3,2.853E3,5.73E2,2.29E2,5.58E3,3.451E3,1.503E3,7.232E3,5.516E3,1.691E3,2.912E4,6.911E3,2.4944E4,2.08E2,2.138E4,1.4166E4,2.1309E4,1.13484E5,5.62E2,1.2E1,1.263E3,5.33E2,1.112E3,1.741E3,8.05E2,1.19E2,2.108E3,1.595E3,9E0,1.949E3,1.375E3,3.94E2,1.661E3,3.8E1,1.487E3,2.9E2,1.202E3,9.09E2,2.32E2,5.63E2,3.15E2,5.26E2,2E1,1.3E1,4.29E2,8.91E2,9.92E2,2.335E3,8.07E2,1.52E2,1.08E3,2.593E3,7.68E2,1.435E3,1.038E3,3.2E1,1.515E3,1.086E3,4.2E1,2.3E1,2.19E2,4E1,6.9E1,1.64E2,1.474E3,2.3E1,5.4E1,1E1,3.8E1,1.2E1,5.19E2,2.216E3,2.64E2,8.17E2,2.32E2,1.37E2,7.31E2,7.38E2,1.78E2,3.42E2,3.73E2,5.35E2,3E1,1.6E1,2.53E2,1.25E2,3.18E2,6.46E2,9E0,3.8E1,5.5E1,3.7E1,6.36E2,5.66E2,6.35E2,2.538E3,2.13E2,5.03E2,2.96E2,6.95E2,2.74E2,6.4E2,1.747E3,7.5E1,6.33E2,2.53E2,2.08E3,1.41E2,7.83E2,4.32E2,3.26E2,2.527E3,5.6E2,1.3E1,1.21E2,1.08E2,2.468E3,3.112E3,6.72E2,2.779E3,2.79E2,1.224E3,7.196E3,3.6E1,7.7E1,5.439E3,3.95E2,1.296E3,6.795E3,2.2325E4,3.019E3,3.892E3,1.8E1,1.9E2,2.224E3,1.9156E4,3.3E1,1.4133E4,8.999E3,1.231E4,3.258E3,1.10226E5],"tree_param":{"num_deleted":"0","num_feature":"51","num_nodes":"251","size_leaf_vector":"1"}},{"base_weights":[8.9368215E-3,-3.992943E-1,7.613393E-2,-5.393059E-1,-2.0123911E-1,-5.96441E-2,8.53619E-2,-5.870982E-1,-2.595706E-1,-2.5334343E-1,-1.2337506E-1,-2.28484E-3,-1.2325328E-1,7.141838E-2,9.9699475E-2,-6.672573E-1,-5.0141734E-1,-3.9554006E-1,-1.7923519E-1,-2.8957963E-1,-1.0678651E-1,-2.1497662E-1,-1.9200953E-3,-5.049933E-2,2.1121528E-2,-2.6074627E-1,-7.921312E-2,4.5491397E-2,8.707935E-2,9.995168E-2,9.8442204E-2,-7.1042764E-1,-5.2837056E-1,-5.208914E-1,-3.1620324E-1,-5.1252955E-1,-3.462981E-1,-2.3747967E-1,-1.1953449E-1,-3.636443E-1,-2.1274908E-1,-2.1516919E-1,-3.8860478E-2,-3.261349E-1,-1.5231836E-1,9.304408E-2,-7.947131E-2,-2.4015443E-1,-3.259286E-2,-2.039095E-2,5.1368717E-2,-3.7255937E-1,-2.346201E-1,-1.1874301E-1,-2.6750645E-2,6.2267497E-2,-8.3362795E-2,6.297316E-2,9.125145E-2,8.450704E-2,2.9988338E-3,9.465288E-2,9.9154726E-2,-7.8132653E-1,-6.7539364E-1,-5.980806E-1,-4.380363E-1,-5.782952E-1,-4.6357948E-1,-3.7073904E-1,-2.2047243E-1,-5.9008616E-1,-4.1614583E-1,-4.3556336E-1,-3.110959E-1,-2.277589E-1,-4.490566E-1,-2.5062498E-1,-9.9329494E-2,-2.446142E-1,-4.1119608E-1,-1.8715568E-1,-2.91922E-1,-3.8716215E-1,-1.7901407E-1,-7.865771E-2,8.640003E-3,-3.9767826E-1,-2.798936E-1,-1.8878841E-1,-9.620721E-2,-9.722222E-2,9.781228E-2,-5.9723884E-2,-3.699115E-1,-2.821256E-1,-7.169811E-2,-1.2574032E-1,-1.4861348E-2,-7.7766985E-2,1.702532E-2,3.8471676E-2,7.384969E-2,-2.292857E-2,-3.5655737E-1,-2.7319473E-1,-1.852573E-1,-1.5299295E-1,-8.758657E-2,-5.075016E-2,4.7986326E-3,1.1878287E-2,7.396052E-2,-4.1669306E-1,8.429862E-2,4.937233E-2,8.555581E-2,8.22452E-2,9.521602E-2,2.9545454E-3,-2.4999997E-3,9.5204055E-2,2.758621E-2,9.058296E-2,9.9257454E-2,-2.4627741E-2,-2.2515316E-2,-2.1012869E-2,-1.8091438E-2,-1.9358063E-2,-1.5837539E-2,-1.4967461E-2,-1.2003988E-2,-1.7954843E-2,-1.4287454E-2,-1.4431718E-2,-1.0374223E-2,-1.1507108E-2,-2.9032256E-3,-3.8282208E-3,-8.657534E-3,-1.8728571E-2,-7.5652166E-3,-9.421487E-3,-1.7458333E-2,-9.382352E-3,-1.5049179E-2,-1.2499997E-3,-9.738129E-3,-7.119604E-3,-1.970149E-3,-3.2999997E-3,-1.5477272E-2,-8.479166E-3,1.0588235E-3,-3.8418968E-3,-6.81818E-4,-1.13788685E-2,2.8310993E-3,-1.0941412E-2,-1.5339458E-2,-6.9856686E-3,-3.838023E-3,2.3437499E-3,-9.834012E-3,-1.6339285E-2,-8.645161E-3,-5.107758E-3,-1.7199999E-2,-3.2327042E-3,-8.0297387E-4,-3.2586204E-3,6.179578E-4,-1.3027659E-2,-7.992537E-3,-6.9872024E-3,-1.0332487E-2,-7.5809346E-3,-4.6929345E-3,-2.4975513E-3,-9.344262E-3,1.5652175E-3,-1.00714285E-2,1.6304348E-3,2.9759475E-3,-6.22E-3,-1.3526696E-3,-1.9862069E-2,-7.9764705E-3,-1.0704E-2,-4.9879514E-3,1.39535E-4,-1.090909E-2,-2.2980766E-3,-7.335937E-3,-3.9556122E-4,-1.090909E-2,-2.1844944E-3,-1.4749999E-2,-3.3678643E-5,2E-3,7.1887247E-4,1.7082917E-3,-2.470588E-3,2.2756213E-3,-7.6739127E-3,-1.2471615E-2,-7.98549E-3,-1.768421E-2,-7.390029E-3,-3.8944588E-3,-4.4435146E-3,-1.209375E-2,-1.4135444E-3,-3.336993E-3,-3.1515956E-3,-9.922278E-4,-1.9351143E-3,7.450332E-4,-2.876842E-3,7.808959E-4,1.0262609E-3,2.3845134E-3,-1.6672747E-2,-8.890855E-3,2.500001E-4,2.611065E-3,2.405303E-3,1.0514376E-3,1.9754022E-3,2.74703E-3,2.2308456E-3,2.726517E-3,2.7284282E-3,2.9293923E-3,1.0159883E-10,2.8646549E-3,-7.4999994E-3,2.8749998E-3,2.848624E-3,-2.4999997E-3,2.9808367E-3,2.7631577E-3],"categories":[],"categories_nodes":[],"categories_segments":[],"categories_sizes":[],"default_left":[0,0,0,0,0,0,0,0,0,0,0,0,0,0,0,0,0,0,0,0,0,0,0,0,0,0,0,0,0,0,0,0,0,0,0,0,0,0,0,0,0,0,0,0,0,0,0,0,0,0,0,0,0,0,0,0,0,0,0,0,0,0,0,0,0,0,0,0,0,0,0,0,0,0,0,0,0,0,0,0,0,0,0,0,0,0,0,0,0,0,0,0,0,0,0,0,0,0,0,0,0,0,0,0,0,0,0,0,0,0,0,0,0,0,0,0,0,0,0,0,0,0,0,0,0,0,0,0,0,0,0,0,0,0,0,0,0,0,0,0,0,0,0,0,0,0,0,0,0,0,0,0,0,0,0,0,0,0,0,0,0,0,0,0,0,0,0,0,0,0,0,0,0,0,0,0,0,0,0,0,0,0,0,0,0,0,0,0,0,0,0,0,0,0,0,0,0,0,0,0,0,0,0,0,0,0,0,0,0,0,0,0,0,0,0,0,0,0,0,0,0,0,0,0,0,0,0,0,0,0,0,0,0,0,0,0,0,0,0,0,0,0,0],"id":6,"left_children":[1,3,5,7,9,11,13,15,17,19,21,23,25,27,29,31,33,35,37,39,41,43,45,47,49,51,53,55,57,59,61,63,65,67,69,71,73,75,77,79,81,83,85,87,89,91,93,95,97,99,101,103,105,107,109,111,113,115,117,119,-1,121,123,125,127,129,131,133,135,137,139,141,143,145,147,149,151,153,155,157,159,161,163,165,167,169,171,173,175,177,179,181,183,185,187,189,191,193,195,197,199,201,203,-1,205,207,209,211,213,215,217,219,221,223,225,227,229,231,233,-1,-1,235,237,239,241,-1,-1,-1,-1,-1,-1,-1,-1,-1,-1,-1,-1,-1,-1,-1,-1,-1,-1,-1,-1,-1,-1,-1,-1,-1,-1,-1,-1,-1,-1,-1,-1,-1,-1,-1,-1,-1,-1,-1,-1,-1,-1,-1,-1,-1,-1,-1,-1,-1,-1,-1,-1,-1,-1,-1,-1,-1,-1,-1,-1,-1,-1,-1,-1,-1,-1,-1,-1,-1,-1,-1,-1,-1,-1,-1,-1,-1,-1,-1,-1,-1,-1,-1,-1,-1,-1,-1,-1,-1,-1,-1,-1,-1,-1,-1,-1,-1,-1,-1,-1,-1,-1,-1,-1,-1,-1,-1,-1,-1,-1,-1,-1,-1,-1,-1,-1,-1,-1],"loss_changes":[8.7734E3,1.2533999E3,3.4409155E2,3.5389062E2,7.5928894E1,6.3765877E1,5.140027E1,1.5500098E2,4.215805E1,5.953351E1,8.352957E1,1.037335E1,5.015889E1,5.293036E1,3.0395508E-2,6.966699E1,3.9280273E1,8.089249E0,8.428253E0,5.1091003E1,1.6372095E1,2.9760468E1,2.3787645E1,1.0193918E1,7.770921E0,5.784317E0,1.3016365E1,1.0613242E2,8.168152E0,6.958008E-3,4.7973633E-2,2.1601074E1,1.7206543E1,3.228247E1,5.36351E0,2.9164505E0,3.0476837E0,2.4274445E0,3.1614704E0,2.5805603E1,8.893509E0,5.2598877E0,2.5886207E0,4.9900055E0,5.5868607E0,1.3268061E0,1.01755295E1,1.8109837E0,4.533549E0,5.602318E0,1.0351372E0,2.1032066E0,3.0569534E0,3.8068428E0,2.043838E0,2.559407E1,3.1612988E2,3.6796455E0,2.4658813E0,1.7477596E-1,0E0,1.22499466E-1,6.729126E-3,2.9715576E0,1.0390381E1,4.8341675E0,2.5970917E0,9.89563E0,1.0035034E1,2.2935257E0,2.373085E0,2.5236588E0,3.0673027E0,2.1478653E0,2.6433563E0,1.8100243E0,1.1445904E0,1.4745159E0,2.2950048E0,5.979801E1,1.5026733E1,9.009666E0,1.4324608E1,2.1502266E0,2.3536243E0,1.1220717E0,8.786578E-1,2.7793808E0,2.7696E0,3.3911705E0,2.9888773E0,1.3001881E0,7.9969406E-2,3.5896263E0,3.2583656E0,1.7316017E0,1.1830227E0,2.5437636E0,1.3443179E0,2.0746808E0,1.4234782E0,6.088853E-1,4.1450787E-1,0E0,2.0754967E0,1.8700333E0,2.4027233E0,2.0184822E0,1.7909307E0,1.4679828E0,1.6220169E0,1.2482863E1,7.7385254E0,3.1512543E1,7.818432E-1,3.3013096E0,5.2799606E-1,1.4359131E0,4.901123E-1,0E0,0E0,9.090996E-2,5.733477E-1,1.7744136E-1,3.9520264E-3,0E0,0E0,0E0,0E0,0E0,0E0,0E0,0E0,0E0,0E0,0E0,0E0,0E0,0E0,0E0,0E0,0E0,0E0,0E0,0E0,0E0,0E0,0E0,0E0,0E0,0E0,0E0,0E0,0E0,0E0,0E0,0E0,0E0,0E0,0E0,0E0,0E0,0E0,0E0,0E0,0E0,0E0,0E0,0E0,0E0,0E0,0E0,0E0,0E0,0E0,0E0,0E0,0E0,0E0,0E0,0E0,0E0,0E0,0E0,0E0,0E0,0E0,0E0,0E0,0E0,0E0,0E0,0E0,0E0,0E0,0E0,0E0,0E0,0E0,0E0,0E0,0E0,0E0,0E0,0E0,0E0,0E0,0E0,0E0,0E0,0E0,0E0,0E0,0E0,0E0,0E0,0E0,0E0,0E0,0E0,0E0,0E0,0E0,0E0,0E0,0E0,0E0,0E0,0E0,0E0,0E0,0E0,0E0,0E0,0E0,0E0,0E0,0E0,0E0,0E0,0E0,0E0,0E0],"parents":[2147483647,0,0,1,1,2,2,3,3,4,4,5,5,6,6,7,7,8,8,9,9,10,10,11,11,12,12,13,13,14,14,15,15,16,16,17,17,18,18,19,19,20,20,21,21,22,22,23,23,24,24,25,25,26,26,27,27,28,28,29,29,30,30,31,31,32,32,33,33,34,34,35,35,36,36,37,37,38,38,39,39,40,40,41,41,42,42,43,43,44,44,45,45,46,46,47,47,48,48,49,49,50,50,51,51,52,52,53,53,54,54,55,55,56,56,57,57,58,58,59,59,61,61,62,62,63,63,64,64,65,65,66,66,67,67,68,68,69,69,70,70,71,71,72,72,73,73,74,74,75,75,76,76,77,77,78,78,79,79,80,80,81,81,82,82,83,83,84,84,85,85,86,86,87,87,88,88,89,89,90,90,91,91,92,92,93,93,94,94,95,95,96,96,97,97,98,98,99,99,100,100,101,101,102,102,104,104,105,105,106,106,107,107,108,108,109,109,110,110,111,111,112,112,113,113,114,114,115,115,116,116,117,117,118,118,121,121,122,122,123,123,124,124],"right_children":[2,4,6,8,10,12,14,16,18,20,22,24,26,28,30,32,34,36,38,40,42,44,46,48,50,52,54,56,58,60,62,64,66,68,70,72,74,76,78,80,82,84,86,88,90,92,94,96,98,100,102,104,106,108,110,112,114,116,118,120,-1,122,124,126,128,130,132,134,136,138,140,142,144,146,148,150,152,154,156,158,160,162,164,166,168,170,172,174,176,178,180,182,184,186,188,190,192,194,196,198,200,202,204,-1,206,208,210,212,214,216,218,220,222,224,226,228,230,232,234,-1,-1,236,238,240,242,-1,-1,-1,-1,-1,-1,-1,-1,-1,-1,-1,-1,-1,-1,-1,-1,-1,-1,-1,-1,-1,-1,-1,-1,-1,-1,-1,-1,-1,-1,-1,-1,-1,-1,-1,-1,-1,-1,-1,-1,-1,-1,-1,-1,-1,-1,-1,-1,-1,-1,-1,-1,-1,-1,-1,-1,-1,-1,-1,-1,-1,-1,-1,-1,-1,-1,-1,-1,-1,-1,-1,-1,-1,-1,-1,-1,-1,-1,-1,-1,-1,-1,-1,-1,-1,-1,-1,-1,-1,-1,-1,-1,-1,-1,-1,-1,-1,-1,-1,-1,-1,-1,-1,-1,-1,-1,-1,-1,-1,-1,-1,-1,-1,-1,-1,-1,-1,-1],"split_conditions":[8.512527E1,7.480319E1,9.97362E1,1E0,-1.15154035E-1,-1.8369701E-16,1.4935693E2,5.352028E-1,4.6470162E-1,1.2246469E-16,-2.5881904E-1,6.226073E-1,6.5124255E-1,0E0,6.123234E-17,9.659258E-1,9.659258E-1,3.8701713E-1,5.4880095E-1,4.8405272E-1,4.9029514E-1,6.569912E-1,8.023263E-1,-8.660254E-1,-7.0710677E-1,5.1327E-1,8.2343405E-1,9.659258E-1,7.7501714E-1,6.784741E-1,1.0441611E0,4.3276078E-1,4.1354868E-1,6.3987255E-1,6.168911E-1,6.8618004E1,6.753316E1,1.705459E-1,3.865778E-1,8.111427E-1,-2.5881904E-1,3.8701713E-1,5.876315E-1,7.948106E1,7.9312766E-1,5.755459E-1,1E0,9.0658945E-1,4.735191E-1,7.9312766E-1,7.618383E-1,4.9029514E-1,2.6357358E0,6.7297834E-1,9.359582E-1,7.1909004E-1,0E0,9.659258E-1,1.1958931E2,9.7692806E-1,7.353932E-3,6.9879127E-1,9.442726E-1,3.7911198E-1,8.660254E-1,4.2060646E-1,6.3068577E1,8.660254E-1,1.2085931E0,8.2343405E-1,2.0316863E0,6.3987255E-1,1.0335384E-1,9.194366E-1,3.35713E-1,4.5117444E-1,4.9824008E-1,1E0,6.6239965E-1,-2.5881904E-1,-2.5881904E-1,7.289556E-1,8.457504E-1,5.062664E-1,1.2379689E0,1.1614282E0,1.0519959E0,6.226073E-1,6.123234E-17,8.004216E1,1.2471957E0,5.352028E-1,3.545473E-1,4.5500758E-1,1.0752156E0,3.8253757E-1,1.0944432E0,8.278816E-1,1.3314012E0,1.2883632E0,9.9792796E-1,5.4221857E-1,2.8181288E-1,-2.328937E-3,7.571662E-1,4.754436E-1,7.7501714E-1,1.223004E0,7.042723E-1,7.5247866E-1,8.788213E1,-7.0710677E-1,-7.0710677E-1,1.0967581E0,7.478922E-1,1.2246469E-16,1.1423054E2,8.660254E-1,1.3091548E2,4.5899265E-3,-2.5323807E-4,8.9469653E-1,1.3427054E0,1.6816572E0,2.567436E0,-4.4021714E-3,-3.9819255E-3,-3.7335658E-3,-3.332586E-3,-3.4743564E-3,-2.7113988E-3,-2.88969E-3,-2.4521186E-3,-3.1684472E-3,-2.7803555E-3,-2.7681757E-3,-2.3730386E-3,-2.247289E-3,-1.3215942E-3,-1.1809241E-3,-1.982737E-3,-2.8857663E-3,-2.9752294E-3,-2.0486177E-3,-2.8600206E-3,-2.1673942E-3,-2.864009E-3,-2.1915828E-4,-2.160328E-3,-1.5757229E-3,-7.465287E-4,-1.5738246E-3,-2.258662E-3,-2.2753014E-3,-1.9700186E-4,-1.0741752E-3,-4.1515462E-4,-2.4163206E-3,2.52144E-3,-2.231643E-3,-3.007376E-3,-1.6081196E-3,-1.0150756E-3,2.8582984E-3,-2.2780227E-3,-1.95636E-3,-2.3689498E-3,-1.2904778E-3,-1.5046321E-3,-8.3055743E-4,-1.455704E-4,-6.0860644E-4,2.8732288E-4,-2.5250618E-3,-1.5546588E-3,-1.8627116E-3,-2.0521977E-3,-1.7877195E-3,-1.2104099E-3,-7.312179E-4,-2.0108218E-3,5.39584E-4,-2.4178864E-3,4.0089544E-3,3.273397E-3,-1.2961748E-3,-4.347016E-4,-3.3448024E-3,-2.1819694E-3,-2.1721073E-3,-1.0596565E-3,-4.228198E-4,-1.3689643E-3,-8.664175E-4,-2.1728163E-3,-1.3870954E-4,-1.0308325E-3,-8.201907E-4,-1.7555042E-3,-3.1100564E-5,7.964977E-4,2.969739E-4,7.691243E-4,-5.540112E-4,1.4523923E-3,-1.8136171E-3,-2.5339182E-3,-1.713212E-3,-2.1043627E-3,-1.8167574E-3,-1.2153264E-3,-1.2240835E-3,-1.9733103E-3,-6.033574E-4,-7.565396E-4,-8.735094E-4,-3.105476E-4,-4.429954E-4,2.1590441E-4,-1.0579481E-3,2.9784357E-4,4.7868284E-4,1.7857557E-3,-3.0115943E-3,-2.0428004E-3,1.5667698E-4,2.3562245E-3,1.9465991E-3,4.726401E-4,1.4647244E-3,2.6931667E-3,1.4976318E-3,2.5124091E-3,2.4824215E-3,3.752513E-3,3.0411E-4,